tree
version=v3
num_class=1
num_tree_per_iteration=1
label_index=0
max_feature_idx=9
objective=quantile
feature_names=sma_7 ema_7 atr_7 adx_7 cci_7 roc_7 rsi_7 wr_7 sk_7 sd_7
feature_infos=[-0.72805429255955068:2.4057615305707407] [-0.74018184510223262:2.428683619128269] [-1.309127691803226:18.752980237075388] [-4.9825606618277094:0.33471447224573087] [-4.0181364790433047:6.172712700792748] [-0.5915086909757552:10.838428270799636] [-0.93273284037187598:1.072450552241855] [-13.401191158065926:9.958278057584506] [-1.4318307317713104:1.7157651778646599] [-1.4431842743325809:1.7293614402096356]
tree_sizes=941 1606 1213 1216 1606 962 1335 1250 1424 1629 1581 1394 1510 1542 1417 1572 1402 1596 1566 1624 1622 1424 1222 1620 1591 1603 1354 1512 1589 1601 1516 1600 1630 1594 1349 1610 1429 1425 1539 1610 1635 1599 1642 1580 1626 1626 1515 1638 1637 1604 1644 1643 1649 1630 1642 1641 1644 1530 1630 1585 1518 1522 1643 1603 1620 1516 1600 1621 1637 1634 1634 1643 1642 1631 1644 1609 1628 1595 1529 1622 1631 1636 1602 1643 1625 1521 1635 1486 1609 1530 1618 1522 1615 1653 1625 1620 1507 1636 1652 1635

Tree=0
num_leaves=9
num_cat=0
split_feature=0 0 1 1 1 0 1 0
split_gain=7351.67 36.2008 4.54902 0.948802 0.156269 0.00218818 0.00042687 9.09495e-13
threshold=1.3629284061679787 1.3204306791883853 1.3450545789387121 1.3156814104777543 1.3623619618921483 1.2887829894065501 1.3156814104777543 2.2951014754673933
decision_type=2 2 2 2 2 2 2 2
left_child=1 5 3 -3 -4 -1 -7 -2
right_child=7 2 4 -5 -6 6 -8 -9
leaf_value=-0.0060870801622513702 0.037275717713782797 0.01160172643627284 0.013114099251288281 0.012604497769842026 0.013614072213864148 0.011269356951277131 0.011954415729192647 0.040005625752382909
leaf_weight=103425 10939 52 324 382 149 381 74 914
leaf_count=103425 10939 52 324 382 149 381 74 914
internal_value=0.012296 -0.0073547 0.0324283 0.0176416 0.0459958 -0.00770205 -0.00726442 0.092296
internal_weight=0 104787 907 434 473 103880 455 11853
internal_count=116640 104787 907 434 473 103880 455 11853
is_linear=0
shrinkage=1


Tree=1
num_leaves=16
num_cat=0
split_feature=8 6 8 8 6 6 6 8 6 6 6 8 6 8 6
split_gain=16.6905 26.2123 7.68872 10.3593 9.0009 6.80799 10.5688 6.77711 6.32807 6.23582 8.59568 5.96448 5.71476 4.9475 0.0439151
threshold=-1.4066315389977946 -0.93271509948295428 1.1124788833275467 1.1998045601614942 1.0723920342941875 -0.93273284037185389 -0.93273283977258903 1.2349644775443476 1.07234561248412 -0.93266361690106481 -0.93266173141994246 0.71270185043025458 -0.93139324887056685 -1.4314474883252217 -0.93269510045509285
decision_type=2 2 2 2 2 2 2 2 2 2 2 2 2 2 2
left_child=1 5 8 4 -4 13 -7 -5 12 14 -11 -10 -2 -1 -3
right_child=2 9 3 7 -6 6 -8 -9 11 10 -12 -13 -14 -15 -16
leaf_value=0.012133865740997863 -0.0021254190518683199 -0.023538243927423538 0.01291978481735896 -0.0090287473996272637 0.0086721601690896936 -0.0030101521825815778 0.0096155104883109757 -9.7135015546143309e-05 -0.0056689519495246189 0.022699527422741995 -0.006574564934310273 -0.0016909295050133784 0.0015346841540895631 -0.014797353343537906 -0.0062998841390412954
leaf_weight=1839 53923 981 470 1246 1994 1690 3313 16949 12285 54 108 9159 11856 108 665
leaf_count=1839 53923 981 470 1246 1994 1690 3313 16949 12285 54 108 9159 11856 108 665
internal_value=0 0.00598766 -0.00309079 0.000378523 0.0125487 0.0115683 0.0076634 -0.00126958 -0.0039125 -0.0154646 0.0219753 -0.00689611 -0.00293985 0.0216025 -0.0191495
internal_weight=0 8758 107882 20659 2464 6950 5003 18195 87223 1808 162 21444 65779 1947 1646
internal_count=116640 8758 107882 20659 2464 6950 5003 18195 87223 1808 162 21444 65779 1947 1646
is_linear=0
shrinkage=0.2


Tree=2
num_leaves=12
num_cat=0
split_feature=0 0 0 0 0 0 6 6 0 0 0
split_gain=5872.52 196.252 149.777 34.975 22.5755 8.02831 16.5786 6.33945 4.67165 0.00288388 9.09495e-13
threshold=1.4505584234623259 1.1940235772936838 1.2887829894065501 1.4988879622049922 1.3629284061679787 1.0677285578784736 -0.93273284037184723 -0.93273284037186233 1.4698077708067521 1.0322683731653879 2.2951014754673933
decision_type=2 2 2 2 2 2 2 2 2 2 2
left_child=1 5 7 8 -4 9 -7 -3 -2 -1 -5
right_child=3 2 4 10 -6 6 -8 -9 -10 -11 -12
leaf_value=-0.02335255902834683 0.0013411310594885985 -0.0014768236684873201 0.0006337814359201081 0.020618334584881496 -0.00201734589023882 0.0006735399535053835 -0.00079397207501284554 0.0026358915363470007 0.00074650162972106642 -0.002474341434783426 0.022693679408526651
leaf_weight=98397 465 26 1362 8207 1821 200 2084 1350 446 1368 914
leaf_count=98397 465 26 1362 8207 1821 200 2084 1350 446 1368 914
internal_value=0 -0.0179139 0.0226848 0.08 -0.00114986 -0.0197276 -0.00800351 0.0778198 0.0408123 -0.019996 0.08
internal_weight=0 106608 4559 10032 3183 102049 2284 1376 911 99765 9121
internal_count=116640 106608 4559 10032 3183 102049 2284 1376 911 99765 9121
is_linear=0
shrinkage=0.2


Tree=3
num_leaves=12
num_cat=0
split_feature=0 0 0 2 0 0 2 0 2 2 2
split_gain=5504.8 211.734 116.043 41.5576 21.0915 10.2965 3.18055 0.0462173 9.09495e-13 2.84217e-14 2.84217e-14
threshold=1.5984873500501937 1.1940235772936838 1.2887829894065501 0.085676566479941735 0.8866156805408969 1.4505584234623259 0.015595405245192132 0.82412560634795196 2.2196562498330716 3.5702482656195973 2.9119170667130621
decision_type=2 2 2 2 2 2 2 2 2 2 2
left_child=1 4 3 -3 7 -4 -6 -1 -2 10 -10
right_child=8 2 5 -5 6 -7 -8 -9 9 -11 -12
leaf_value=-0.020927839292208678 0.017051432629032824 0.0023775825935711719 -0.00017638070802258085 0.0012175352855320727 -0.00059205880584988586 0.00079876360176543498 -0.00022699450505709389 -0.002963079907990997 0.019363050569400457 0.014955475545334175 0.0045033418324180513
leaf_weight=94285 8257 650 3183 726 2720 1360 3679 1365 201 154 60
leaf_count=94285 8257 650 3183 726 2720 1360 3679 1365 201 154 60
internal_value=0 -0.0171066 0.0196689 0.0705523 -0.0192396 0.00425709 -0.00812315 -0.0199833 0.08 0.08 0.08
internal_weight=0 107968 5919 1376 102049 4543 6399 95650 8672 415 261
internal_count=116640 107968 5919 1376 102049 4543 6399 95650 8672 415 261
is_linear=0
shrinkage=0.2


Tree=4
num_leaves=16
num_cat=0
split_feature=4 9 4 9 9 4 4 4 4 9 9 9 9 9 4
split_gain=10.0894 12.0302 11.8703 9.33084 11.9343 30.0754 9.75929 7.569 6.38364 8.38701 5.95844 4.34928 3.6532 3.02379 1.45941
threshold=1.0000000180025095e-35 0.97877868073972107 -0.25068455104110882 -1.171878120743965 -1.2752950275761756 0.54127693079907047 0.32629587373182006 -1.2850847919169424 -1.836343360742436 -1.171878120743965 0.99343921149919812 -0.88353998148646384 -1.4404382125071082 -0.81880725798053511 0.72439537397278075
decision_type=2 2 2 2 2 2 2 2 2 2 2 2 2 2 2
left_child=1 8 7 4 6 -6 -2 -3 9 -1 -4 14 -10 -13 -5
right_child=3 2 10 11 5 -7 -8 -9 12 -11 -12 13 -14 -15 -16
leaf_value=-0.014248129676256688 0.00067532081774816181 0.0023478095061924167 0.0021542930381504509 -0.0037953091326033161 -0.0022897566979101463 0.0052946262361932787 -0.0052858443047744926 -0.00025826161404460984 0.00030328449552882112 0.0074397783131620494 0.0018694278844110625 0.0029761165344301733 -0.00085770155551136206 -0.002393222221717698 -0.008323736159169105
leaf_weight=898 917 29 32 2317 611 542 1945 5500 5247 975 2624 1063 49073 43891 976
leaf_count=898 917 29 32 2317 611 542 1945 5500 5247 975 2624 1063 49073 43891 976
internal_value=0 -0.00245985 0.00470372 -0.0062003 0.00306351 0.0202428 -0.00385745 -0.000575154 -0.00350329 0.0079765 0.0156928 -0.00697122 -0.00389912 -0.00645727 -0.0139873
internal_weight=0 64378 8185 52262 4015 1153 2862 5529 56193 1873 2656 48247 54320 44954 3293
internal_count=116640 64378 8185 52262 4015 1153 2862 5529 56193 1873 2656 48247 54320 44954 3293
is_linear=0
shrinkage=0.2


Tree=5
num_leaves=9
num_cat=0
split_feature=0 0 0 0 6 0 0 0
split_gain=4922.43 236.723 35.3955 65.3522 14.5542 4.72451 1.66257 1.13687e-13
threshold=1.6748169634906682 0.91731503304049988 1.1940235772936838 1.2887829894065501 -0.93273284037187565 0.75243234335208065 0.82412560634795196 0.69034203467741573
decision_type=2 2 2 2 2 2 2 2
left_child=1 5 4 -4 -3 7 -7 -1
right_child=-2 2 3 -5 -6 6 -8 -9
leaf_value=-0.017442510070154078 0.013845448747601055 0.00066871039875639096 0.0018873504404246758 0.00041436081641216287 -0.00018393063023739424 -0.00019218639058650734 -0.0019502191226019529 -0.0020467007054248989
leaf_weight=92917 8217 373 1376 4998 5577 906 1814 462
leaf_count=92917 8217 373 1376 4998 5577 906 1814 462
internal_value=0 -0.016414 0.00968192 0.0200376 -0.00141177 -0.0197607 -0.0115441 -0.02
internal_weight=0 108423 12324 6374 5950 96099 2720 93379
internal_count=116640 108423 12324 6374 5950 96099 2720 93379
is_linear=0
shrinkage=0.2


Tree=6
num_leaves=13
num_cat=0
split_feature=4 8 8 8 4 8 4 8 8 4 4 4
split_gain=26.8936 16.411 4.74116 8.04669 6.38047 4.65081 11.4306 3.63971 3.52791 1.5059 1.85185 0.702149
threshold=1.0000000180025095e-35 1.7157651778646594 1.6945905054802182 1.2349644775443476 1.3996047738694772 -1.0636492947964824 -2.2741253305093858 0.79626237841863012 -1.4066315389977946 0.027043490316937469 0.014846625042871908 1.3996047738694772
decision_type=2 2 2 2 2 2 2 2 2 2 2 2
left_child=1 5 3 7 -5 8 -7 -2 -1 10 -4 -11
right_child=2 -3 9 4 -6 6 -8 -9 -10 11 -12 -13
leaf_value=-0.00066138846061838431 -0.0022145698894787619 0.00071968815562377603 -0.020893003858698064 0.0001022591775607904 -0.0048265235171728845 0.012002443779752054 -0.00049746216220561347 -0.0025699243105925607 -0.001815100233462057 -0.0046625974036357083 0.0072213560362258261 -0.0050744872466694972
leaf_weight=6807 32806 29 27 5006 2080 158 46446 7946 10938 2578 27 1792
leaf_count=6807 32806 29 27 5006 2080 158 46446 7946 10938 2578 27 1792
internal_value=0 -0.00378639 -0.00989324 -0.00931394 -0.00309343 -0.00386611 -0.00281693 -0.0103956 -0.00662159 -0.0161573 0.017037 -0.0165675
internal_weight=0 64378 52262 47838 7086 64349 46604 40752 17745 4424 54 4370
internal_count=116640 64378 52262 47838 7086 64349 46604 40752 17745 4424 54 4370
is_linear=0
shrinkage=0.2


Tree=7
num_leaves=12
num_cat=0
split_feature=4 8 8 8 8 4 4 8 8 8 8
split_gain=16.6487 16.2657 3.17305 9.69662 6.4168 2.36853 2.87365 5.14428 2.27217 0.172519 4.49038
threshold=0.11636170049532367 1.7157651778646594 0.56686742518790367 0.58514982918403347 0.48329784826177941 0.14750733696603183 0.21896150033772158 -1.4165432151615514 1.2349644775443476 -0.68219334365298934 -0.70169085640971574
decision_type=2 2 2 2 2 2 2 2 2 2 2
left_child=1 2 4 -4 -1 9 7 -7 -8 10 -2
right_child=5 -3 3 -5 -6 6 8 -9 -10 -11 -12
leaf_value=-0.00062717436198683177 -0.0022551657725981204 0.00057575052449902048 0.013499380271225181 -0.00017701121067329457 -0.012418492150061187 0.00089909329534503663 -0.0021209546549149495 -0.00058107308816169115 -0.0010556177513049803 -0.0030341434368538404 0.00091665402414624483
leaf_weight=52740 295 29 157 14057 1080 155 34888 2161 10443 618 17
leaf_count=52740 295 29 157 14057 1080 155 34888 2161 10443 618 17
internal_value=0 -0.00322143 -0.00329659 -0.000638812 -0.00399852 -0.00806843 -0.00787332 -0.00100173 -0.0082244 -0.0180645 -0.0142308
internal_weight=0 68063 68034 14214 53820 48577 47647 2316 45331 930 312
internal_count=116640 68063 68034 14214 53820 48577 47647 2316 45331 930 312
is_linear=0
shrinkage=0.2


Tree=8
num_leaves=14
num_cat=0
split_feature=3 3 8 3 3 3 3 3 8 3 8 8 3
split_gain=6.83171 8.93587 6.38169 6.20259 6.16074 5.67771 6.51673 2.74761 2.21821 1.24714 5.55571 1.0157 0.0529015
threshold=-3.7766851331395364 0.33460574669344195 1.7157651778646594 0.33453691892575582 -0.49259895132933446 0.33468524994704169 0.33468937033742147 0.33457215502152488 -1.2469393610743906 -4.6562626722227876 1.3220910927955825 -1.3617717856882068 -3.9394013580049538
decision_type=2 2 2 2 2 2 2 2 2 2 2 2 2
left_child=2 3 9 4 -2 8 -7 -5 -3 10 -1 -11 -4
right_child=1 5 12 7 -6 6 -8 -9 -10 11 -12 -13 -14
leaf_value=-0.0012442447006459718 0.00021330936233572421 -0.00051811674534096017 0.00038014839622507182 0.0013995359750547853 -0.00077035307115035133 0.0018301411751099944 -0.00097581043944621577 1.7398946487181936e-06 -0.0020929616051143926 -0.0031919256609245317 0.0023808020245621969 -0.0035084964349964883 0.00038268135092443535
leaf_weight=380 10106 1003 19 2500 35867 832 53758 2475 6814 183 90 2593 20
leaf_count=380 10106 1003 19 2500 35867 832 53758 2475 6814 183 90 2593 20
internal_value=0 -0.00399012 -0.013242 -0.00202481 -0.00275075 -0.00559457 -0.00487269 0.00468341 -0.0106358 -0.0142083 -0.00468086 -0.0158213 0.0671795
internal_weight=0 113355 3285 50948 45973 62407 54590 4975 7817 3246 470 2776 39
internal_count=116640 113355 3285 50948 45973 62407 54590 4975 7817 3246 470 2776 39
is_linear=0
shrinkage=0.2


Tree=9
num_leaves=16
num_cat=0
split_feature=2 2 2 7 2 2 7 2 2 7 2 2 7 2 7
split_gain=90.6301 21.367 9.66509 8.58251 6.91597 10.6147 6.86352 5.3275 4.72056 3.60195 2.66126 2.55939 2.02016 1.66071 0.896357
threshold=-0.067932690718772309 -0.58042406937636914 2.0126248690251054 0.43040555659169805 1.1802307889174957 1.2802214375676662 -2.2818619751717182 -0.51504067010072607 -0.29989696754673184 -1.2908993747046731 -0.84823443591568826 5.8833118455258075 0.75243523036545323 2.4604517371067152 1.442548765464527
decision_type=2 2 2 2 2 2 2 2 2 2 2 2 2 2 2
left_child=1 10 4 8 6 -6 -2 -5 -3 11 14 -4 -12 -11 -1
right_child=2 3 9 7 5 -7 -8 -9 -10 13 12 -13 -14 -15 -16
leaf_value=-0.020091239129321318 -0.0029965519317178588 -0.0010388957905475222 0.00081672005556227836 0.00038392756995445229 0.0034800976639186108 0.0004303983385800213 0.00036382403485254013 -0.0017547536712483611 2.3249880899881719e-05 -0.00023608066338733099 -0.0035054889530757916 -0.0082207071818965367 -0.012760941341019686 -0.0020910430934902753 0.0012914372503113976
leaf_weight=9270 841 14715 1328 1639 1357 6300 38216 10558 10255 1395 16192 177 2292 2064 41
leaf_count=9270 841 14715 1328 1639 1357 6300 38216 10558 10255 1395 16192 177 2292 2064 41
internal_value=0 -0.00840861 0.00281435 -0.00527189 0.00370595 0.00920203 0.00262846 -0.0096204 -0.00314778 -0.00557615 -0.012603 0.00259136 -0.011214 -0.00912981 -0.0153603
internal_weight=0 64962 51678 37167 46714 7657 39057 12197 24970 4964 27795 1505 18484 3459 9311
internal_count=116640 64962 51678 37167 46714 7657 39057 12197 24970 4964 27795 1505 18484 3459 9311
is_linear=0
shrinkage=0.2


Tree=10
num_leaves=16
num_cat=0
split_feature=5 5 6 6 6 5 5 6 6 5 5 6 6 6 6
split_gain=323.861 405.841 113.542 73.249 42.062 57.2672 41.5614 80.9464 24.0242 22.5618 19.2964 15.8208 4.3594 4.01786 1.49958
threshold=0.017025094868593809 0.00794028137545842 1.0724505517605711 -0.93273284037182991 1.0723791274955765 0.046276470450462674 0.01335873747154258 1.072447685302367 -0.93273283858575329 0.009051309854937557 0.02327202984871922 1.0724323418835036 -0.93252036398831506 1.0724505522418479 1.0724505522417631
decision_type=2 2 2 2 2 2 2 2 2 2 2 2 2 2 2
left_child=1 2 3 -1 5 8 9 -8 -2 -3 13 -12 -7 -6 -4
right_child=4 6 14 -5 10 12 7 -9 -10 -11 11 -13 -14 -15 -16
leaf_value=0.0095633531161223133 0.00017528882371005557 -0.0015982636049007605 -0.0014752926774062817 0.0023685251560202438 0.0047413188630723762 0.0014293429592295696 -0.0010296807727741856 0.0066288128471042682 0.0011862336760040159 -0.010591859204249881 0.010530356288221271 0.00087941897411248325 0.003375784506252877 0.00023517461864872906 -0.0040980510741131628
leaf_weight=1423 1970 10123 1109 17582 963 585 9565 982 2973 65592 213 594 168 56 2742
leaf_count=1423 1970 10123 1109 17582 963 585 9565 982 2973 65592 213 594 168 56 2742
internal_value=0 -0.00542129 0.0182744 0.0246198 0.0374847 0.0290168 -0.0116997 6.25723e-05 0.0211896 -0.0133382 0.0638992 0.0407187 0.08 0.08 -0.0130408
internal_weight=0 109118 22856 19005 7522 5696 86262 10547 4943 75715 1826 807 753 1019 3851
internal_count=116640 109118 22856 19005 7522 5696 86262 10547 4943 75715 1826 807 753 1019 3851
is_linear=0
shrinkage=0.2


Tree=11
num_leaves=14
num_cat=0
split_feature=3 6 6 3 6 3 3 6 3 6 6 3 6
split_gain=7.75035 4.6601 6.01143 6.45323 5.81327 6.75281 5.12319 4.47433 9.62395 1.61234 3.74716 0.800433 0.75
threshold=-3.7766851331395364 1.0724505517605711 1.072450551536374 -1.3131510422743975 1.0724505520794325 0.33471447224573053 0.33471447224573053 1.0724505522417342 -4.6562626722227876 -0.93269880536981209 -0.93272502047599237 -3.9394013580049538 1.072450552241816
decision_type=2 2 2 2 2 2 2 2 2 2 2 2 2
left_child=7 2 6 -4 -3 -6 -2 9 12 10 -1 -11 -9
right_child=1 4 3 -5 5 -7 -8 8 -10 11 -12 -13 -14
leaf_value=-0.0021290072712086255 -0.00055564531004610024 -0.0027095891901202512 0.0015391731923968146 0.0010106209505586872 -0.00068742412146529242 -0.012028729255566877 0.00048879336515779968 0.0013219171892407016 -0.0047561934547588215 -0.0029658332979786181 0.0019514011902482559 -0.0018678227793044373 0.0041933025934549504
leaf_weight=487 92380 1180 28 746 8711 1230 9080 18 74 2162 186 331 27
leaf_count=487 92380 1180 28 746 8711 1230 9080 18 74 2162 186 331 27
internal_value=0 -0.00283976 -0.00241681 0.0151421 -0.00672782 -0.0051524 -0.00255076 -0.0126941 0.0253781 -0.0141251 -0.00543834 -0.0164701 0.08
internal_weight=0 113355 102234 774 11121 9941 101460 3285 119 3166 673 2493 45
internal_count=116640 113355 102234 774 11121 9941 101460 3285 119 3166 673 2493 45
is_linear=0
shrinkage=0.2


Tree=12
num_leaves=15
num_cat=0
split_feature=6 6 6 9 9 6 9 9 6 9 9 9 6 9
split_gain=3.63797 4.57762 5.26581 4.85043 4.55961 12.748 4.52571 8.84443 4.50437 4.37931 4.37131 4.35149 2.44961 2.37639
threshold=1.0723989485518726 1.0724463510064406 1.0724505475277348 -0.48299428235516589 1.7180885700755784 1.0723893686514268 1.2954231917170398 1.0289935195827291 1.0724252953464901 1.3892278588134672 0.76284786085002299 0.69255351750981298 1.0723951131040954 1.5811070307191706
decision_type=2 2 2 2 2 2 2 2 2 2 2 2 2 2
left_child=4 8 10 -4 6 -6 7 -1 11 -10 -3 -2 -7 -8
right_child=1 2 3 -5 5 12 13 -9 9 -11 -12 -13 -14 -15
leaf_value=-0.00033819464617132618 -0.0036605330692207707 -0.00092003427538303671 0.0034396651482312942 -0.00080487892935635357 -0.0032590639579186593 0.0043443973643383293 -0.0035433767288237635 0.0011950216290134317 -0.0012748133479338966 -0.003345088944516285 0.0016441368071827137 5.1023172695650175e-05 0.0028351115047183734 0.0016759062346966504
leaf_weight=78579 1798 2170 90 18445 123 22 1055 1723 3050 2524 2973 3816 101 171
leaf_count=78579 1798 2170 90 18445 123 22 1055 1723 3050 2524 2973 3816 101 171
internal_value=0 -0.00409913 -0.00252387 -0.00409496 -0.00165921 0.0255285 -0.00174125 -0.00155713 -0.00743297 -0.0114604 0.00313824 -0.00343428 0.0710569 -0.013801
internal_weight=0 34866 23678 18535 81774 246 81528 80302 11188 5574 5143 5614 123 1226
internal_count=116640 34866 23678 18535 81774 246 81528 80302 11188 5574 5143 5614 123 1226
is_linear=0
shrinkage=0.2


Tree=13
num_leaves=15
num_cat=0
split_feature=2 4 2 4 2 2 2 2 2 4 4 2 2 2
split_gain=54.1601 20.0829 13.6546 12.8161 10.9789 13.1169 5.91759 4.9297 4.72408 4.71689 3.75968 2.47135 5.52095 2.09328
threshold=-0.12468240631795646 1.1013328564087725 0.77965376593539404 0.50954205130932528 -0.58042406937636914 -0.50976335095876968 3.5702482656195973 -0.93717450228706467 2.0126248690251054 1.2252112372094943 0.3047896049424797 -0.48917385695282534 -0.46480413132698045 -1.0008885864922508
decision_type=2 2 2 2 2 2 2 2 2 2 2 2 2 2
left_child=3 6 9 4 7 -6 10 -1 -4 -3 -2 13 -13 -5
right_child=1 2 8 11 5 -7 -8 -9 -10 -11 -12 12 -14 -15
leaf_value=-0.016483601149780282 0.00061887005007213751 -0.00017758869825599058 0.00097708940094657021 -0.017591734979655004 0.00097317592749839813 -0.00057678573377163602 -0.0054559838717156764 -0.0021961744176969677 -0.00094779730105878424 -0.0027822876561284671 0.00047755041881482801 0.0030217101820955517 -0.00244169385798051 -0.013131769038848877
leaf_weight=3962 29280 1266 4097 640 4300 21302 386 17971 2720 3856 13260 487 6229 6884
leaf_count=3962 29280 1266 4097 640 4300 21302 386 17971 2720 3856 13260 487 6229 6884
internal_value=0 0.00263373 -0.00462183 -0.00600081 -0.00442411 -0.00161082 0.00465172 -0.00770802 0.00124101 -0.0124248 0.00487541 -0.011264 -0.00847529 -0.0137533
internal_weight=0 54865 11939 61775 47535 25602 42926 21933 6817 5122 42540 14240 6716 7524
internal_count=116640 54865 11939 61775 47535 25602 42926 21933 6817 5122 42540 14240 6716 7524
is_linear=0
shrinkage=0.2


Tree=14
num_leaves=14
num_cat=0
split_feature=4 8 4 8 8 8 8 4 8 8 8 8 8
split_gain=7.01809 14.4988 17.1811 7.41058 7.23086 4.78675 3.12867 8.1627 6.58669 2.57858 13.928 1.61509 0.792606
threshold=1.1673581925466741 1.7157651778646594 0.55498410428213862 -0.45060454602397643 -0.78871836754231905 -0.49260266955895826 0.32447563943104912 -0.65089181213986536 0.15584709738776861 0.032222626416455645 0.042209770324314673 -1.1835677608023609 -0.25396643662871576
decision_type=2 2 2 2 2 2 2 2 2 2 2 2 2
left_child=1 6 -3 4 11 -6 8 -8 -1 12 -11 -2 -5
right_child=3 2 -4 9 5 -7 7 -9 -10 10 -12 -13 -14
leaf_value=-0.00020221739715548599 0.0042743408324374512 0.0022245240103614394 -0.007547235112740136 -0.0014293703181644105 0.0016196650976497591 0.0033693078116661807 -0.00079122598407259696 0.00033867122490528789 -0.0014931515136839819 0.012486291344737234 -0.0016448529849295982 -0.010185865145979352 -0.0034647702454987691
leaf_weight=64402 67 56 71 400 514 29 4915 27647 4932 38 12554 247 768
leaf_count=64402 67 56 71 400 514 29 4915 27647 4932 38 12554 247 768
internal_value=0 -0.000919993 0.0666142 -0.00560581 0.0124387 0.0264088 -0.00100417 0.00061298 -0.00176364 -0.00672966 -0.00589581 -0.0117197 -0.0157192
internal_weight=0 102023 127 14617 857 543 101896 32562 69334 13760 12592 314 1168
internal_count=116640 102023 127 14617 857 543 101896 32562 69334 13760 12592 314 1168
is_linear=0
shrinkage=0.2


Tree=15
num_leaves=16
num_cat=0
split_feature=5 5 2 2 2 2 5 2 5 2 2 2 5 5 2
split_gain=284.133 322.055 388.32 100.345 51.9879 50.7208 52.2349 29.4062 19.2304 16.2052 6.61028 6 5.78 1.15714 1.08765
threshold=0.017930110535922104 0.007089965970709918 -0.41735505927051769 0.77965376593539404 -0.51504067010072607 -0.12468240631795646 0.009051309854937557 2.9119170667130621 0.014424059019459675 -0.32272929023343483 -0.47759794658079929 5.8833118455258075 0.01960000462968391 0.020442097569362144 -0.66182130116732452
decision_type=2 2 2 2 2 2 2 2 2 2 2 2 2 2 2
left_child=1 2 10 -4 12 6 -3 9 -7 -6 -1 -9 14 -14 -2
right_child=4 5 3 -5 7 8 -8 11 -10 -11 -12 -13 13 -15 -16
leaf_value=0.005300828422242926 -3.4009684407644103e-05 0.0011879023972030446 0.0026033509241413558 -0.0012933888762609038 0.00021185653223999902 -0.0023769848497938039 -0.0095045197564568099 0.0098491606896403908 0.0012584753523419341 0.0011554784106464577 0.0024578927150068807 0.00097824238358248938 0.00074449176215622898 0.002635230328984624 0.00069796189993913968
leaf_weight=2094 34 6731 8446 6825 706 32797 48187 173 4526 5063 433 54 70 485 15.999999999999998
leaf_count=2094 34 6731 8446 6825 706 32797 48187 173 4526 5063 433 54 70 485 16
internal_value=0 -0.00363853 0.0209934 0.00876039 0.039082 -0.00839128 -0.0122576 0.0332021 -0.00270236 0.0301993 0.08 0.08 0.08 0.08 0.012
internal_weight=0 110039 17798 15271 6601 92241 54918 5996 37323 5769 2527 227 605 555 50
internal_count=116640 110039 17798 15271 6601 92241 54918 5996 37323 5769 2527 227 605 555 50
is_linear=0
shrinkage=0.2


Tree=16
num_leaves=14
num_cat=0
split_feature=0 0 0 3 0 0 0 0 3 0 3 0 3
split_gain=3898.01 616.01 90.0001 25.5299 16.4418 41.8665 10.2235 8.71482 6.09935 5.5377 6.32132 0.00053885 9.09495e-13
threshold=1.4273278691350713 0.60307769302576542 1.7997942681849528 0.32945147687533188 0.96544383594704453 1.0322683731653879 1.6748169634906682 1.5984873500501937 -3.2612946183522986 0.51833313259411928 0.33471447224573053 0.35668012429679269 -3.2612946183522986
decision_type=2 2 2 2 2 2 2 2 2 2 2 2 2
left_child=1 9 3 7 8 -6 -5 -2 -3 11 -11 -1 -4
right_child=2 4 12 6 5 -7 -8 -9 -10 10 -12 -13 -14
leaf_value=-0.014178333248883923 -9.6911401896696743e-05 -0.00055859737193572113 0.013008955682662339 0.0020808644885283874 0.0026641094354208483 0.0013178778595297979 0.0029357437829262358 0.0010572608918872257 0.00084157796819694626 -0.0032169995792946191 0.00095377259630830653 -0.0037933535759045755 0.012283821078046903
leaf_weight=84250 442 223 195 1624 1373 7755 208 443 4341 1144 202 6864 7576
leaf_count=84250 442 223 195 1624 1373 7755 208 443 4341 1144 202 6864 7576
internal_value=0 -0.0139445 0.08 0.0435996 0.0256471 0.0305478 0.0570742 0.0157062 0.0158457 -0.0198075 -0.00707281 -0.0199956 0.08
internal_weight=0 106152 10488 2717 13692 9128 1832 885 4564 92460 1346 91114 7771
internal_count=116640 106152 10488 2717 13692 9128 1832 885 4564 92460 1346 91114 7771
is_linear=0
shrinkage=0.2


Tree=17
num_leaves=16
num_cat=0
split_feature=5 5 6 5 6 6 5 6 6 5 6 6 5 5 6
split_gain=64.9134 66.1444 40.9918 37.4884 28.3134 15.7215 14.3995 12.1907 12.1333 7.80484 33.2721 7.5994 6.90576 0.912262 0.494794
threshold=0.015083962580847253 0.00794028137545842 1.0724505516699951 0.081118765559668279 -0.93273283988500644 -0.93273283848729738 0.021687839413085681 -0.93273283110553329 1.0721105341360679 0.013151324116930279 1.0724505463091596 -0.9326725548986966 0.009051309854937557 -0.018817633004632888 1.0724505379386211
decision_type=2 2 2 2 2 2 2 2 2 2 2 2 2 2 2
left_child=1 2 4 5 -1 6 -2 -7 11 12 -11 -5 -3 -4 -10
right_child=3 9 13 8 -6 7 -8 -9 14 10 -12 -13 -14 -15 -16
leaf_value=0.004268535576635135 -0.00097369078198922179 -0.002027905863145218 2.2621222376076879e-05 0.0013787344878230302 0.00033573691410623282 0.0012903314690499859 0.00043590278024147489 0.00066306308482374468 0.00010525598436024863 -0.0020542775119995137 0.0054136126856438116 0.0043953752398533307 -0.0057869986479176325 -0.0019282498596976485 -0.00044475483930635326
leaf_weight=2461 2498 10123 55 249 16408 592 873 6785 27 7504 743 113 64224 3932 53
leaf_count=2461 2498 10123 55 249 16408 592 873 6785 27 7504 743 113 64224 3932 53
internal_value=0 -0.00758464 0.00193734 0.0084361 0.00583072 0.00608857 -0.00522694 0.0112593 0.0655204 -0.0102196 -0.0043822 0.08 -0.0108672 -0.0164886 -0.005
internal_weight=0 105450 22856 11190 18869 10748 3371 7377 442 82594 8247 362 74347 3987 80
internal_count=116640 105450 22856 11190 18869 10748 3371 7377 442 82594 8247 362 74347 3987 80
is_linear=0
shrinkage=0.2


Tree=18
num_leaves=16
num_cat=0
split_feature=1 1 2 2 2 1 2 2 1 2 2 2 2 1 2
split_gain=2268.41 642.518 175.713 21.1675 20.6797 15.5216 107.771 7.9762 7.22372 51.7858 5.78704 5.32509 2.85853 2.0921 2.27374e-13
threshold=1.8714602218110181 0.55200696059630838 -0.58042406937636914 -0.47084264795065439 -0.77871392270387185 2.0150756311609963 0.49861984043822888 1.3124547544602747 0.45986939759883083 -0.52758040933323047 3.2003921943926072 -0.38130889291722392 4.1249723200612456 0.24938962167258041 2.0126248690251054
decision_type=2 2 2 2 2 2 2 2 2 2 2 2 2 2 2
left_child=1 8 4 -4 -3 6 11 -8 13 -10 14 -2 -12 -1 -7
right_child=5 2 3 -5 -6 10 7 -9 9 -11 12 -13 -14 -15 -16
leaf_value=-0.011406428977192122 0.0050631693429864129 0.0056271921469283935 0.0029315917499984565 0.00075310860205378286 0.0024422823599128253 0.012076712283895922 -0.00027106668198871814 0.0056294024334592567 0.00088861969363050188 -0.0024070502349508738 -0.0002464803360450435 0.0051854786276999583 0.0057578271596946786 -0.0029968415472964526 0.016078921140494636
leaf_weight=79138 668 687 1328 14812 1436 3428 603 291 146 3007 29 1172 79 9673 143
leaf_count=79138 668 687 1328 14812 1436 3428 603 291 146 3007 29 1172 79 9673 143
internal_value=0 -0.0124538 0.0218113 0.0146964 0.075902 0.08 0.0649305 0.00572706 -0.0192584 -0.00985094 0.08 0.08 0.0337037 -0.0195924 0.08
internal_weight=0 110227 18263 16140 2123 6413 2734 894 91964 3153 3679 1840 108 88811 3571
internal_count=116640 110227 18263 16140 2123 6413 2734 894 91964 3153 3679 1840 108 88811 3571
is_linear=0
shrinkage=0.2


Tree=19
num_leaves=16
num_cat=0
split_feature=2 2 9 9 9 9 2 9 9 9 2 2 2 9 2
split_gain=8.51737 9.50359 8.28575 8.01914 4.0934 2.66274 9.02775 8.90881 1.33527 12.1039 0.798411 0.692681 4.5339 0.00502436 0.00494458
threshold=-0.29363836800257015 2.1203620254775957 -1.2636399667541658 1.5389462107287835 -0.19793424235427007 0.67831141765375336 1.9164056859399836 0.64664748951371631 0.70423840874820998 0.67831141765375336 4.1249723200612456 -0.7242157376095899 -0.70759018379839211 1.5604193503446975 -1.0187312291515564
decision_type=2 2 2 2 2 2 2 2 2 2 2 2 2 2 2
left_child=2 5 11 4 -4 7 -7 -2 9 -3 -10 14 -13 -5 -1
right_child=1 8 3 13 -6 6 -8 -9 10 -11 -12 12 -14 -15 -16
leaf_value=-0.010208296628675001 -0.00061497806499417396 -0.0022837359274893521 -0.0019175920085313847 -0.0024640045870012424 -0.0011712167787294285 -0.0011372810597906995 0.0020713527635644637 0.0034180562315179576 -0.0020528842123255613 0.0052820739963251448 -0.0035206864937116947 0.0007831187169890009 -0.001808186096178844 -0.0037679872171922772 -0.0059002148365496776
leaf_weight=178 42448 2040 19760 182 22933 18683 378 357 1802 51 614 249 3713 1945 1307
leaf_count=178 42448 2040 19760 182 22933 18683 378 357 1802 51 614 249 3713 1945 1307
internal_value=0 -0.00536454 -0.00881573 -0.00792058 -0.00732345 -0.00471859 -0.00668486 -0.00384301 -0.0142312 -0.0105309 -0.0174338 -0.0161814 -0.0148006 -0.019906 -0.0198653
internal_weight=0 66373 50267 44820 42693 61866 19061 42805 4507 2091 2416 5447 3962 2127 1485
internal_count=116640 66373 50267 44820 42693 61866 19061 42805 4507 2091 2416 5447 3962 2127 1485
is_linear=0
shrinkage=0.2


Tree=20
num_leaves=16
num_cat=0
split_feature=2 7 7 2 7 7 7 2 7 2 7 7 7 7 7
split_gain=7.20593 9.53707 18.1861 7.51985 3.8626 2.6061 3.58238 2.29217 1.97381 1.62603 5.79741 1.48732 1.01195 3.12326 0.0617574
threshold=-0.10993904143089873 0.29478727012731842 -0.59344802309913347 2.2196562498330716 -0.02616658737299573 0.76299011962896579 0.5624890996049946 -0.14581092057122694 -0.96213654371890478 -0.095727338014004876 -1.108675776994605 3.0838740067071759 0.48212888510958868 0.47577498437495341 2.3092215841660648
decision_type=2 2 2 2 2 2 2 2 2 2 2 2 2 2 2
left_child=1 2 8 9 -4 6 -3 -7 -1 10 -2 -11 13 -5 -14
right_child=3 5 4 12 -6 7 -8 -9 -10 11 -12 -13 14 -15 -16
leaf_value=-0.003059249564635688 0.0061799065214872256 -0.0016462591771107011 -0.00011644920827753355 -0.0021902242739573921 -0.0010430994246282447 -0.0021862410503712486 -0.00060381062067208348 0.00013429524202096811 -0.0016303354775559246 -0.00050968302165868703 -0.00015375138683651479 -0.0037018712608920244 -0.0026444026685744156 0.00017939211131731971 -0.00069405251799221912
leaf_weight=4624 86 8956 17226 3313 11718 8832 5438 448 5447 48630 826 348 592 35 121
leaf_count=4624 86 8956 17226 3313 11718 8832 5438 448 5447 48630 826 348 592 35 121
internal_value=0 -0.00719393 -0.00527234 -0.00404108 -0.00272527 -0.0103607 -0.00867584 -0.0129741 -0.0125926 -0.00336741 0.005 -0.00352322 -0.0123172 -0.0108602 -0.0191585
internal_weight=0 62689 39015 53951 28944 23674 14394 9280 10071 49890 912 48978 4061 3348 713
internal_count=116640 62689 39015 53951 28944 23674 14394 9280 10071 49890 912 48978 4061 3348 713
is_linear=0
shrinkage=0.2


Tree=21
num_leaves=14
num_cat=0
split_feature=0 0 0 0 8 8 8 8 0 8 8 0 0
split_gain=2014.78 650.949 36.2358 30.2461 24.2741 18.9497 6.24974 12.0582 2.80571 1.53954 0.331258 0.272547 4.54747e-13
threshold=0.60307769302576542 2.0139507980863356 1.8743155729262055 0.3132399423047923 1.679177954269542 -1.2734822245061113 0.99041820610572573 -0.19706593453352497 0.18553609799188384 0.4400060919744892 1.6945905054802182 0.048646390267184182 2.2951014754673933
decision_type=2 2 2 2 2 2 2 2 2 2 2 2 2
left_child=3 2 5 8 -4 -2 7 -5 11 -10 -8 -1 -3
right_child=1 12 4 6 -6 -7 10 -9 9 -11 -12 -13 -14
leaf_value=-0.01074213754337908 0.0002414291449072069 0.0098340176764015134 0.0041550334770518336 -0.0014796275349141382 -0.00094655364759401697 0.0015126448644860865 -0.003333759712427907 0.00031322416658517108 -0.0035448621174055932 -0.0029260255137497217 -0.0028243707717845235 -0.005971518965991858 0.011404856988733275
leaf_weight=64198 2061 2757 2546 5116 187 15715 1330 2914 5002 2328 656 10916 914
leaf_count=64198 2061 2757 2546 5116 187 15715 1330 2914 5002 2328 656 10916 914
internal_value=0 0.0466253 0.0291784 -0.0182176 0.0506184 0.0258821 -0.00783946 -0.00535492 -0.0194784 -0.0157435 -0.0178852 -0.0198429 0.08
internal_weight=0 24180 20509 92460 2733 17776 10016 8030 82444 7330 1986 75114 3671
internal_count=116640 24180 20509 92460 2733 17776 10016 8030 82444 7330 1986 75114 3671
is_linear=0
shrinkage=0.2


Tree=22
num_leaves=12
num_cat=0
split_feature=0 0 0 7 0 7 0 7 7 0 7
split_gain=1445.06 621.874 26.8564 22.1031 19.7909 4.56081 4.00854 3.3631 3.18839 1.5574 0.591325
threshold=2.0139507980863356 0.55176365761870849 0.3132399423047923 0.92120349141896285 1.5984873500501937 -2.1220260563302888 0.14144874623735643 -3.7494189698658142 0.29478727012731842 1.4698077708067521 -2.6598426730336042
decision_type=2 2 2 2 2 2 2 2 2 2 2
left_child=1 2 6 4 -3 7 -1 -2 -4 -5 -9
right_child=5 3 8 9 -6 -7 -8 10 -10 -11 -12
leaf_value=-0.0078558544680992822 0.0092896114805605754 0.0010704892787803469 -0.00078488965244517817 3.6935712983624436e-05 0.0033226291319943136 0.0081297258763587624 -0.0030270970903189167 0.0035835896955043016 -0.0014350044689918108 0.00043431226752005739 0.0092109510428733162
leaf_weight=71471 19 13681 5881 2067 4145 3560 10973 42 3686 1065 50
leaf_count=71471 19 13681 5881 2067 4145 3560 10973 42 3686 1065 50
internal_value=0 -0.0110117 -0.0180937 0.0200802 0.0228026 0.08 -0.0192577 0.0394595 -0.00806314 0.00458492 0.0213043
internal_weight=0 112969 92011 20958 17826 3671 82444 111 9567 3132 92
internal_count=116640 112969 92011 20958 17826 3671 82444 111 9567 3132 92
is_linear=0
shrinkage=0.2


Tree=23
num_leaves=16
num_cat=0
split_feature=4 4 4 4 4 7 7 7 4 7 4 7 4 7 7
split_gain=10.8843 8.22219 7.53925 4.33376 2.57684 2.56211 2.49231 2.23192 1.63847 2.39855 8.11441 2.31228 3.66424 0.919383 0.536007
threshold=1.1345028782855329 -0.64239173679782524 0.11636170049532367 -1.836343360742436 0.20338438236773634 -0.43594083176909532 0.67678277152613298 2.5379414874713819 1.4717329986074901 -1.6643317406533609 1.4478040803540364 0.45054282928347789 1.7680788422135276 -0.29183749097790807 0.7179970527147409
decision_type=2 2 2 2 2 2 2 2 2 2 2 2 2 2 2
left_child=1 3 5 7 -4 -3 -5 -1 9 10 -2 13 -13 -10 -11
right_child=8 2 4 6 -6 -7 -8 -9 11 14 -12 12 -14 -15 -16
leaf_value=0.00031455752786716592 -0.0023340497784657857 -0.00075750737485675863 -0.001612834760107021 -0.00097425899535477948 -0.0015864028983335826 -0.00035387011375179742 -0.0014829408234401662 -0.0039279979924621905 -0.0030226069812772484 -0.0024605157970894556 0.0013050542888133011 -0.0024514021672102401 0.003047053085046231 -0.0020020014371041786 -0.0054024461243925102
leaf_weight=1673 494 9613 2778 22918 30269 21584 12075 200 6085 6509 70 261 71 1750 290
leaf_count=1673 494 9613 2778 22918 30269 21584 12075 200 6085 6509 70 261 71 1750 290
internal_value=0 -0.00702404 -0.00565781 -0.00940488 -0.00776289 -0.0034279 -0.00990656 -3.20389e-05 -0.0127109 -0.0105473 0.00198581 -0.0146614 0.00168674 -0.0153542 -0.011587
internal_weight=0 101110 64244 36866 33047 31197 34993 1873 15530 7363 564 8167 332 7835 6799
internal_count=116640 101110 64244 36866 33047 31197 34993 1873 15530 7363 564 8167 332 7835 6799
is_linear=0
shrinkage=0.2


Tree=24
num_leaves=16
num_cat=0
split_feature=0 0 2 2 0 2 2 2 2 0 2 2 2 2 0
split_gain=1248.64 568.989 136.955 44.8706 40.8255 175.825 21.0353 16.3715 7.84637 4.25001 53.6076 3.92391 3.46671 0.166998 0.00874479
threshold=0.55176365761870849 2.0139507980863356 -0.44884087940079825 -0.84823443591568826 0.207630007662442 -0.72914139375027798 -0.10280974095109925 0.55456675973175651 -0.84823443591568826 -0.028552644615260234 -0.87040725944593933 3.5702482656195973 4.1249723200612456 0.67048894765134626 -0.031716507558160766
decision_type=2 2 2 2 2 2 2 2 2 2 2 2 2 2 2
left_child=4 2 3 -2 9 8 -7 -4 -6 14 -11 13 -13 -3 -1
right_child=1 11 7 -5 5 6 -8 -9 -10 10 -12 12 -14 -15 -16
leaf_value=-0.0077078613898399831 0.0068311119712783641 0.0068619927412736058 0.0010654148656255075 0.002043933849776052 0.0043458074702415559 -0.0001018506826364174 -0.002473830612240159 0.00010033547747251271 0.0014718886837602073 0.0026893453531904184 -0.0038791804965444682 -0.0014190306999771057 0.0029304852658524564 0.0062915896560270168 -0.0052291736146456271
leaf_weight=55009 489 2320 11156 3819 270 4675 10241 5494 358 672 20336 28 64 1259 450
leaf_count=55009 489 2320 11156 3819 270 4675 10241 5494 358 672 20336 28 64 1259 450
internal_value=0 0.0335304 0.0198034 0.0515877 -0.0171721 -0.00782811 -0.0122499 0.0115796 0.08 -0.0190715 -0.0166489 0.08 0.0386956 0.08 -0.0199892
internal_weight=0 24629 20958 4308 92011 15544 14916 16650 628 76467 21008 3671 92 3579 55459
internal_count=116640 24629 20958 4308 92011 15544 14916 16650 628 76467 21008 3671 92 3579 55459
is_linear=0
shrinkage=0.2


Tree=25
num_leaves=16
num_cat=0
split_feature=0 0 0 0 0 9 9 0 9 9 0 9 9 0 0
split_gain=804.721 376.098 45.4385 29.0626 18.0834 14.2678 16.9472 10.3143 7.81082 10.3956 3.60666 1.8449 0.928572 0.531582 0.43557
threshold=0.69034203467741573 2.0139507980863356 0.3132399423047923 2.219444786584873 2.1116083077834551 1.1287587119473286 -0.32000213224726121 -0.0069228754460739497 0.99343921149919812 -0.24916716893702998 1.9907558955560658 -1.4210496163148882 1.5604193503446975 -0.096124946259723718 0.47936485220539188
decision_type=2 2 2 2 2 2 2 2 2 2 2 2 2 2 2
left_child=2 5 7 4 -3 6 -2 13 9 -4 -7 -9 -5 -1 -10
right_child=1 3 8 12 -6 10 -8 11 14 -11 -12 -13 -14 -15 -16
leaf_value=-0.0076301341741339436 0.00064746810970730704 0.0048769762329660083 -0.00049939694795633771 0.0062402651409943976 0.0021999634673507441 4.2126045848367437e-05 0.0015407814627329359 -0.0022607233532458628 -0.0013835152846989717 0.00053210119026349408 0.0010302812326751843 -0.0023607758708068492 0.007936615312444939 -0.0041644614389086954 -0.0023103247978383868
leaf_weight=42040 8871 930 5273 1637 922 3340 7735 1651 1498 3143 106 22552 182 16201 559
leaf_count=42040 8871 930 5273 1637 922 3340 7735 1651 1498 3143 106 22552 182 16201 559
internal_value=0 0.0246739 -0.016597 0.08 0.054946 0.0138819 0.0163122 -0.0181733 -0.00418792 -0.00148765 0.00217063 -0.0147031 0.08 -0.0196154 -0.0152358
internal_weight=0 23723 92917 3671 1852 20052 16606 82444 10473 8416 3446 24203 1819 58241 2057
internal_count=116640 23723 92917 3671 1852 20052 16606 82444 10473 8416 3446 24203 1819 58241 2057
is_linear=0
shrinkage=0.2


Tree=26
num_leaves=13
num_cat=0
split_feature=4 6 6 4 4 4 4 4 4 6 6 4
split_gain=8.8275 8.4136 6.81528 5.31703 5.45926 4.49891 9.23049 4.44624 2.07002 1.47699 5.85312 0.565786
threshold=1.1203454160202193 1.072450552241816 -0.93273283207223578 -0.77176614671264343 -0.41632012708717531 0.85292737680229347 0.89404755043126427 0.070709712776696673 -1.836343360742436 -0.93255967603348255 -0.93254968372402469 1.1673581925466741
decision_type=2 2 2 2 2 2 2 2 2 2 2 2
left_child=1 3 -2 8 -5 7 -7 -3 -1 11 -11 -4
right_child=2 5 9 4 -6 6 -8 -9 -10 10 -12 -13
leaf_value=-0.0012077890652487464 0.0010157655706498458 0.0013086182212145303 -0.00086398802520668754 -0.00051797333543899659 -0.0010261026901843624 0.003511842223088204 0.0015272042082781758 -0.00076740125636828816 -0.00090689278245483266 0.0036824934919981803 -0.0019952256329436968 -0.0037166549775443994
leaf_weight=1873 9.9999999999999982 214 247 19217 49924 82 738 941 27660 107 14013 1614
leaf_count=1873 10 214 247 19217 49924 82 738 941 27660 107 14013 1614
internal_value=0 -0.00791245 -0.0129711 -0.00817115 -0.00721164 0.00501265 0.0163415 -0.00303031 -0.0104175 -0.0130918 -0.0123938 -0.018388
internal_weight=0 100649 15991 98674 69141 1975 820 1155 29533 15981 14120 1861
internal_count=116640 100649 15991 98674 69141 1975 820 1155 29533 15981 14120 1861
is_linear=0
shrinkage=0.2


Tree=27
num_leaves=15
num_cat=0
split_feature=1 1 1 1 6 6 1 6 1 6 1 6 6 1
split_gain=652.664 216.895 43.2363 31.918 29.5 20.3423 12.9725 10.6802 6.15379 13.772 4.63759 4.07157 3.96306 0.0380772
threshold=0.59574651776830656 2.2206802235412471 0.18419609861621308 2.0150756311609963 1.0724505521744665 -0.93273284037187565 -0.16124733932563215 -0.9327328367019021 0.43500298097405016 -0.93273284037187565 2.2652293708888527 -0.93273283762348191 1.0693851356517576 -0.16692766937040734
decision_type=2 2 2 2 2 2 2 2 2 2 2 2 2 2
left_child=2 3 6 7 10 -5 13 -2 12 -10 -3 -8 -4 -1
right_child=1 4 8 5 -6 -7 11 -9 9 -11 -12 -13 -14 -15
leaf_value=-0.0084606746823861125 0.000334574791876527 0.002855607595740195 -0.0010879447662305378 -0.00053322572597572226 -0.0013980232450674542 0.0033178263251782436 -0.0023669054080926993 0.0011141815687253551 0.0016489635149148859 -0.00022822010964764291 0.0062018020630912433 -0.0026529812081732534 -0.00049907574480870655 -0.0023157808373012274
leaf_weight=29558 5046 427 6528 191 118 1669 9155 15506 317 4666 1274 35415 5853 917
leaf_count=29558 5046 427 6528 191 118 1669 9155 15506 317 4666 1274 35415 5853 917
internal_value=0 0.0221774 -0.0146997 0.0167392 0.08 0.041828 -0.0167806 0.0144687 -0.00570606 0.000228773 0.08 -0.0146062 -0.00809467 -0.0199606
internal_weight=0 24231 92409 22412 1819 1860 75045 20552 17364 4983 1701 44570 12381 30475
internal_count=116640 24231 92409 22412 1819 1860 75045 20552 17364 4983 1701 44570 12381 30475
is_linear=0
shrinkage=0.2


Tree=28
num_leaves=16
num_cat=0
split_feature=8 8 6 6 6 8 6 6 6 8 8 6 8 8 8
split_gain=9.50999 5.38791 11.2849 9.37179 4.63248 6.2221 4.57788 1.15142 7.69358 9.71677 5.58188 14.2411 2.76568 2.48282 0.00414079
threshold=1.0819342840828903 1.0500627030394873 1.0724505475277348 1.0724505468251182 1.0724504561851516 -0.040455448252845951 1.0724323418835036 1.0724505416701462 1.0724505455566484 1.275711648779341 1.7157651778646594 1.0724169677898077 1.2934767653959292 1.2349644775443476 1.0680601997937564
decision_type=2 2 2 2 2 2 2 2 2 2 2 2 2 2 2
left_child=1 4 3 -3 6 -6 -1 10 9 -9 13 -12 -10 -2 -4
right_child=7 2 14 -5 5 -7 -8 8 12 -11 11 -13 -14 -15 -16
leaf_value=-0.00070167259297199277 -0.0014711375760628155 0.0023121954521821693 -0.00065993846675073083 0.0022428293071681247 -0.0020044380135244371 -0.00012104903541181847 -0.0014136368400838595 -0.0027696343045439612 -0.0022184366760470919 0.0054202035477061462 0.0024623150989883545 -0.0019840622581080935 -0.00081672779481424789 -0.0016283277231150875 -0.0041969053461879662
leaf_weight=81977 2457 464 138 28 968 9548 1844 110 2418 131 29 83 8308 7953 184
leaf_count=81977 2457 464 138 28 968 9548 1844 110 2418 131 29 83 8308 7953 184
internal_value=0 -0.00647203 0.00972972 0.0287805 -0.00661183 -0.00265501 -0.00710825 -0.0111304 -0.00969637 0.0256431 -0.012625 0.0317857 -0.0104904 -0.0131028 -0.0193789
internal_weight=0 95151 814 492 94337 10516 83821 21489 10967 241 10522 112 10726 10410 322
internal_count=116640 95151 814 492 94337 10516 83821 21489 10967 241 10522 112 10726 10410 322
is_linear=0
shrinkage=0.2


Tree=29
num_leaves=16
num_cat=0
split_feature=0 0 0 0 0 7 0 0 0 0 7 7 0 0 0
split_gain=474.234 137.107 40.0643 20.9847 12.1014 11.0667 24.0313 8.41829 7.82113 6.03781 4.12903 2.96593 1.49045 1.1001 0.130441
threshold=0.46128188269450143 2.2670206114462501 -0.16402002760418521 2.0554676272958194 0.029970042339931547 0.26316087345178613 2.2951014754673933 0.058555949008037504 0.69034203467741573 2.1116083077834551 1.5382831675677209 -1.2264778548450768 -0.19608377238549132 -0.19167613769367978 -0.27405343290055201
decision_type=2 2 2 2 2 2 2 2 2 2 2 2 2 2 2
left_child=2 3 12 8 11 6 -3 -6 -2 -5 -7 -4 14 -14 -1
right_child=1 5 4 9 7 10 -8 -9 -10 -11 -12 -13 13 -15 -16
leaf_value=-0.0075562380944292941 0.00021543688561702666 0.0060930491123139521 -0.0034417667736044602 0.004161362552401732 0.00026831443838851816 0.0030008763622029941 0.0054820898378697969 -0.00083287775935561169 0.00087811053212098278 0.0023528024661648686 0.0017075915640964391 -0.0021906778191547057 -0.0035436673400869867 -0.0035875961575390913 -0.006780633992584959
leaf_weight=21309 4066 292 2612 467 2754 525 477 23738 20515 1385 62 29694 458 3689 4597
leaf_count=21309 4066 292 2612 467 2754 525 477 23738 20515 1385 62 29694 458 3689 4597
internal_value=0 0.0166476 -0.0132876 0.0134657 -0.0102514 0.0786726 0.0559428 -0.0070829 0.011919 0.0339957 0.08 -0.0128496 -0.019228 -0.0157077 -0.0197916
internal_weight=0 27789 88851 26433 58798 1356 769 26492 24581 1852 587 32306 30053 4147 25906
internal_count=116640 27789 88851 26433 58798 1356 769 26492 24581 1852 587 32306 30053 4147 25906
is_linear=0
shrinkage=0.2


Tree=30
num_leaves=15
num_cat=0
split_feature=2 2 7 7 2 2 7 2 2 2 7 2 7 7
split_gain=237.746 28.6838 15.2257 11.4726 11.032 9.43513 7.98476 7.8281 7.38839 4.71576 4.68465 3.64921 2.52107 2.15461
threshold=-0.93717450228706467 -0.8369367463092946 0.45910603068399969 0.0356576944825251 -1.0330915567919308 -0.88619552979124272 -0.62866633665748017 0.59055396953237815 -1.0753277374062735 -1.0008885864922508 -0.41537679571128511 -0.84823443591568826 -0.12464004721036591 -0.98446992044291415
decision_type=2 2 2 2 2 2 2 2 2 2 2 2 2 2
left_child=2 5 3 6 -5 13 -1 10 -4 -10 -3 -7 -9 -2
right_child=1 7 8 4 -6 11 -8 12 9 -11 -12 -13 -14 -15
leaf_value=0.001986122154816044 0.0008656998669577088 -0.0011375925631120453 -0.0015044329588654059 0.0010267794461349901 0.0023771118055613744 0.0011369958118172192 0.0014934957831907361 -0.0011015498481840829 0.0020635696434277598 0.0013732925640849714 -0.00072031971835922581 8.1322753541684947e-05 -0.0015424237020776471 -0.00040242041648637253
leaf_weight=403 136 22198 196 629 1018 1863 1946 11602 300 606 60542 477 12510 2214
leaf_count=403 136 22198 196 629 1018 1863 1946 11602 300 606 60542 477 12510 2214
internal_value=0 -0.00814438 0.036022 0.0417618 0.0545598 0.00716417 0.0327884 -0.00881631 0.0152087 0.0228256 -0.0078922 0.0161538 -0.0119874 -0.00178724
internal_weight=0 111542 5098 3996 1647 4690 2349 106852 1102 906 82740 2340 24112 2350
internal_count=116640 111542 5098 3996 1647 4690 2349 106852 1102 906 82740 2340 24112 2350
is_linear=0
shrinkage=0.2


Tree=31
num_leaves=16
num_cat=0
split_feature=1 2 1 2 1 2 1 2 2 2 1 2 2 1 1
split_gain=425.361 205.009 299.862 118.53 103.432 99.1649 44.561 69.3993 32.1376 28.2206 27.332 27.06 7.52971 2.94157 1.57822
threshold=0.42518195819270749 -0.84823443591568826 -0.23542118943911702 -0.93717450228706467 2.2206802235412471 -0.62261634141353828 0.02473107729874495 -0.16187422344280838 0.67048894765134626 -0.0069192622629129135 1.0436789421189456 1.5546989727216012 -0.25628099480118244 -0.088884691278476716 -0.27428504044879981
decision_type=2 2 2 2 2 2 2 2 2 2 2 2 2 2 2
left_child=1 2 14 -4 5 10 13 -8 12 -7 -2 -10 -6 -3 -1
right_child=4 6 3 -5 8 9 7 -9 11 -11 -12 -13 -14 -15 -16
leaf_value=-0.00408301510324719 0.0042549501548815039 -0.0049225174308402649 0.001817354456705294 0.0011810845972277106 0.0054890449083500109 0.001274747769971661 0.00038049821757709648 -0.0021626456494773282 0.00032234987951329779 0.00018445583109753211 0.0017688772794462381 0.0057481843617700305 0.0034358009676322323 -0.0025962928466787723 0.00014483763673540738
leaf_weight=4352 601 37165 2087 2207 202 9956 8422 16162 532 15474 1835 214 871 16384 176
leaf_count=4352 601 37165 2087 2207 202 9956 8422 16162 532 15474 1835 214 871 16384 176
internal_value=0 -0.012242 0.0166583 0.0545226 0.0154859 0.0124697 -0.0155051 -0.00845591 0.0616932 0.00877703 0.0510181 0.0295979 0.08 -0.0187413 -0.0192491
internal_weight=0 86955 8822 4294 29685 27866 78133 24584 1819 25430 2436 746 1073 53549 4528
internal_count=116640 86955 8822 4294 29685 27866 78133 24584 1819 25430 2436 746 1073 53549 4528
is_linear=0
shrinkage=0.2


Tree=32
num_leaves=16
num_cat=0
split_feature=0 0 0 0 0 0 0 0 7 7 7 7 0 7 0
split_gain=317.429 78.1008 36.204 21.4801 6.02338 7.6613 6.00811 5.19816 8.74826 6.35854 4.15958 2.68612 1.43637 0.722061 0.0012475
threshold=0.24416519123619765 2.219444786584873 -0.17278666496026321 0.60307769302576542 0.025846978305396531 0.063829130418965874 0.26257609871048876 2.2670206114462501 0.3018723137161114 0.12114979156299503 0.90732280115266406 -1.254107398474946 -0.28108891393760999 -0.11589166148176712 -0.32077548325408262
decision_type=2 2 2 2 2 2 2 2 2 2 2 2 2 2 2
left_child=2 3 12 6 11 -6 -2 9 -9 -3 -5 -4 14 -14 -1
right_child=1 7 4 10 5 -7 -8 8 -10 -11 -12 -13 13 -15 -16
leaf_value=-0.0052046915042141643 0.00079608921277106665 0.0030414758474735849 -0.0021260814718222754 0.00081178385128388751 4.4609055667886505e-05 -0.0010563086702299179 -7.0615583790292381e-05 0.003820439638677748 0.0023830489528780352 0.00070522145425094276 0.00024681560088957323 -0.0013185671478284497 -0.0043069216001634667 -0.0031004715769057988 -0.0051294100394533877
leaf_weight=18069 1386 208 2532 18875 3675 13193 12320 814 542 255 3486 30689 3254 4563 2779
leaf_count=18069 1386 208 2532 18875 3675 13193 12320 814 542 255 3486 30689 3254 4563 2779
internal_value=0 0.00883387 -0.0134454 0.00679457 -0.0102014 -0.00712355 0.000560334 0.0492688 0.0555162 0.0309719 0.0106158 -0.0117643 -0.0191139 -0.0168018 -0.0199808
internal_weight=0 37886 78754 36067 50089 16868 13706 1819 1356 463 22361 33221 28665 7817 20848
internal_count=116640 37886 78754 36067 50089 16868 13706 1819 1356 463 22361 33221 28665 7817 20848
is_linear=0
shrinkage=0.2


Tree=33
num_leaves=16
num_cat=0
split_feature=2 4 4 2 2 2 4 4 4 2 4 4 2 2 4
split_gain=184.262 34.8057 50.6063 20.3097 17.5505 17.4019 16.451 12.292 11.9646 15.5732 8.73389 12.704 10.697 6.70529 5.6587
threshold=-0.93717450228706467 -0.45828588171578916 0.93288744752658881 -0.8369367463092946 -1.0462151901634626 -1.0008885864922508 -0.58830403270840781 -1.587681458592342 0.98552310602775162 -0.87898928014884004 0.8748879400438544 -0.574135964346424 -0.26215344596793894 -1.1332392937976541 0.17329022946836059
decision_type=2 2 2 2 2 2 2 2 2 2 2 2 2 2 2
left_child=1 4 13 8 6 -4 -1 -6 14 -10 11 -5 -12 -3 -2
right_child=3 2 5 10 7 -7 -8 -9 9 -11 12 -13 -14 -15 -16
leaf_value=0.00018740052729942274 0.00049296226559292721 0.0017439761630363426 0.0073421692340340629 -0.00083072949576803643 -0.00081083105067090717 0.00120454567924915 0.00043399802835368106 0.0017889686051999283 -0.0022988443916715953 0.0043165718114552927 -0.0003325085331824837 -0.00045596273726887255 -0.0018991545929593501 -0.00030854280658115292 -0.00066141550244673748
leaf_weight=530 3702 162 216 36447 81 177 116 1916 142 169 5460 47502 17443 1900 677
leaf_count=530 3702 162 216 36447 81 177 116 1916 142 169 5460 47502 17443 1900 677
internal_value=0 0.0311181 0.0139715 -0.00776426 0.047045 0.0797455 0.0183901 0.0563145 0.00511727 0.0430225 -0.00832966 -0.0073852 -0.0117915 0.00143549 0.00242521
internal_weight=0 5098 2455 111542 2643 393 646 1997 4690 311 106852 83949 22903 2062 4379
internal_count=116640 5098 2455 111542 2643 393 646 1997 4690 311 106852 83949 22903 2062 4379
is_linear=0
shrinkage=0.2


Tree=34
num_leaves=13
num_cat=0
split_feature=4 6 4 6 6 4 4 6 6 4 6 6
split_gain=10.9942 6.97989 10.95 6.00712 8.12895 3.1672 2.38009 11.6268 4.91116 4.12394 6.56645 5.3368
threshold=0.80149343744769863 -0.93273283799714923 0.97380913370569766 1.0724505497636476 1.0724505508222573 1.5628003144552609 -0.66705041673943466 1.0724505522402004 -0.93273283967062792 -0.41632012708717531 -0.9327328344164888 -0.9327328403698536
decision_type=2 2 2 2 2 2 2 2 2 2 2 2
left_child=6 2 -2 5 -5 -3 7 8 -1 11 -11 -8
right_child=1 3 -4 4 -6 -7 9 -9 -10 10 -12 -13
leaf_value=-0.00024188201126279331 -0.0056174354010109576 -0.0013178318034297114 0.00093473872100700026 0.0010207530950122584 -0.00068764865129277472 -0.00040882195947795078 0.0011070156972949928 0.0026004402147818185 -0.00057516146121213546 -0.00091568906438638264 -0.0002525607854223156 -0.00022195311940844672
leaf_weight=14626 51 14007 29 691 9445 2345 1428 19 20863 6611 34711 11814
leaf_count=14626 51 14007 29 691 9445 2345 1428 19 20863 6611 34711 11814
internal_value=0 -0.00898676 0.05 -0.00916491 -0.00533939 -0.0115362 -0.00435696 -0.00563141 -0.00573079 -0.00352761 -0.00451189 -0.000456129
internal_weight=0 26568 80 26488 10136 16352 90072 35508 35489 54564 41322 13242
internal_count=116640 26568 80 26488 10136 16352 90072 35508 35489 54564 41322 13242
is_linear=0
shrinkage=0.2


Tree=35
num_leaves=16
num_cat=0
split_feature=2 4 4 2 2 4 2 4 4 4 4 2 4 2 2
split_gain=107.539 35.4902 16.3408 12.5772 10.1257 8.49085 8.01253 13.383 8.60149 7.66252 6.53322 12.5685 8.89355 4.42288 0.337823
threshold=-0.93717450228706467 -0.30707857751633066 0.67057271458153378 -0.84823443591568826 -1.1332392937976541 -1.0159447058937972 -1.0462151901634626 -0.58830403270840781 -1.587681458592342 -0.67261671882027996 0.8748879400438544 -0.46024328716593438 -0.574135964346424 -1.1332392937976541 -0.87040725944593933
decision_type=2 2 2 2 2 2 2 2 2 2 2 2 2 2 2
left_child=1 6 4 5 -3 14 7 -1 -8 -7 12 -12 -5 -4 -2
right_child=3 2 13 10 -6 9 8 -9 -10 -11 11 -13 -14 -15 -16
leaf_value=0.00019829682409209633 -0.0010240709813118816 0.0017483011031495356 -8.4496441954906576e-05 -0.00057411121854517694 -0.00091978909899764121 0.0010176509794532751 -0.00059948124096659413 0.00076347657470274006 0.0013075166204650909 0.00014072545954926273 0.00011014375234157579 -0.0012905485002172978 -0.00030097499244732356 0.0012017910834411357 -0.00033168979450981517
leaf_weight=530 555 91 148 36610 1221 1036 81 190 2154 2509 3342 19627 47750 683 113
leaf_count=530 555 91 148 36610 1221 1036 81 190 2154 2509 3342 19627 47750 683 113
internal_value=0 0.0238603 0.00426504 -0.0058439 -0.00963415 0.00487538 0.0380711 0.0197222 0.0439821 0.00877291 -0.00626467 -0.00925509 -0.00545046 0.0262094 -0.0158084
internal_weight=0 5098 2143 111542 1312 4213 2955 720 2235 3545 107329 22969 84360 831 668
internal_count=116640 5098 2143 111542 1312 4213 2955 720 2235 3545 107329 22969 84360 831 668
is_linear=0
shrinkage=0.2


Tree=36
num_leaves=14
num_cat=0
split_feature=4 8 4 8 8 8 8 8 8 4 8 8 8
split_gain=9.62001 9.58692 7.72126 5.25402 15.1006 5.03854 13.0225 5.50523 4.93863 2.06791 1.06396 17.8931 0.348814
threshold=0.80149343744769863 1.7157651778646594 0.17329022946836059 0.73845968170935194 0.42569891177485697 -0.19706593453352497 -0.18348850382222895 0.90505008478398774 0.85550992122218594 0.65877987688166051 -0.53105861959047918 -0.54295434626193895 -0.24208536131827571
decision_type=2 2 2 2 2 2 2 2 2 2 2 2 2
left_child=1 3 -3 4 -1 10 -7 -8 -5 -4 11 -2 -12
right_child=5 2 9 8 -6 6 7 -9 -10 -11 12 -13 -14
leaf_value=-0.00023293885939658964 -0.0010095433719130727 0.0020285754579692171 -0.00010953527140050088 -0.00089193910028157418 0.00045131857225885991 0.0011321525352437302 -0.00026997032971639651 -0.00072241650598225493 -0.00035842467874695869 0.0011171646965211113 -0.002756287342451166 0.0047972889366712486 -0.00038592090667529901
leaf_weight=65821 3138 29 46 2154 6504 24 9842 11561 15491 27 1630 31 342
leaf_count=65821 3138 29 46 2154 6504 24 9842 11561 15491 27 1630 31 342
internal_value=0 -0.00284928 0.0584314 -0.00291876 -0.00216385 -0.00718007 -0.00583097 -0.00602066 -0.00601304 0.010137 -0.012803 -0.0105333 -0.0164503
internal_weight=0 90072 102 89970 72325 26568 21427 21403 17645 73 5141 3169 1972
internal_count=116640 90072 102 89970 72325 26568 21427 21403 17645 73 5141 3169 1972
is_linear=0
shrinkage=0.2


Tree=37
num_leaves=14
num_cat=0
split_feature=4 8 4 8 8 4 8 8 8 8 8 4 8
split_gain=7.0248 7.81165 9.1573 4.44069 11.9032 4.30861 1.9994 12.9533 2.64835 1.6133 5.75994 1.10146 0.431923
threshold=0.91717958057564564 1.7157651778646594 0.17329022946836059 0.73845968170935194 0.42569891177485697 -0.10355345924825146 -0.19706593453352497 -0.18348850382222895 0.90505008478398774 -1.0817166650161261 -1.0889241126776243 0.65877987688166051 -0.79708260222835148
decision_type=2 2 2 2 2 2 2 2 2 2 2 2 2
left_child=1 3 -3 4 -1 -5 9 -8 -9 10 -2 -4 -11
right_child=6 2 11 5 -6 -7 7 8 -10 12 -12 -13 -14
leaf_value=-0.00019270982507694045 -0.00050024756023816738 0.0016228603663753741 -8.7628217120400836e-05 -0.00059989384391432405 0.00037622007862620556 -0.00017911572110861247 0.000905722028194983 -0.00030986053925816472 -0.00057514013554476869 -0.0033176782692310759 0.0012932385052288832 0.00061988658858241777 -0.00097837171119785345
leaf_weight=68220 437 29 46 9172 6914 9820 24 8401 10428 553 82 35 2479
leaf_count=68220 437 29 46 9172 6914 9820 24 8401 10428 553 82 35 2479
internal_value=0 -0.00235707 0.0509091 -0.00241932 -0.00172865 -0.00515165 -0.00629709 -0.00547712 -0.00569229 -0.0106505 -0.000346826 0.00469135 -0.0124143
internal_weight=0 94236 110 94126 75134 18992 22404 18853 18829 3551 519 81 3032
internal_count=116640 94236 110 94126 75134 18992 22404 18853 18829 3551 519 81 3032
is_linear=0
shrinkage=0.2


Tree=38
num_leaves=15
num_cat=0
split_feature=0 0 0 0 0 6 6 6 6 6 6 0 6 6
split_gain=439.339 61.9675 46.0476 19.8721 19.685 25.2189 13.4953 11.8356 11.1588 6.99431 3.18365 0.877535 1.57913 0.142812
threshold=0.24416519123619765 -0.19608377238549132 2.219444786584873 -0.0092230115117676714 0.60307769302576542 1.072450552241704 -0.93273283988500644 1.0724505521744665 1.0724505497636476 1.0724505522402004 1.0724505520794325 -0.28108891393760999 -0.93273284037169757 -0.93273284037179638
decision_type=2 2 2 2 2 2 2 2 2 2 2 2 2 2
left_child=1 11 4 10 9 -6 -5 8 -4 -2 -3 13 -13 -1
right_child=2 3 7 6 5 -7 -8 -9 -10 -11 -12 12 -14 -15
leaf_value=-0.0041081309885880385 0.00045667863409347751 -0.0010105380726096588 0.002465422894009842 0.00068087958490283028 0.00086507162860046901 0.0044794867289974991 -0.00042962920053715058 -0.0012085995269703312 0.0043171083857886598 -0.00039141224217427163 -0.00022794672515498161 -0.0021448867369771719 -0.0035433928815167509 -0.0038397663307767078
leaf_weight=2491 12751 29170 1613 2896 21076 1285 18064 102 104 955 2718 748 4310 18357
leaf_count=2491 12751 29170 1613 2896 21076 1285 18064 102 104 955 2718 748 4310 18357
internal_value=0 -0.0110684 0.0151423 -0.00714048 0.0135764 0.0172345 -0.00235687 0.0461902 0.0501223 0.00760834 -0.0102848 -0.0190813 -0.0167181 -0.0196546
internal_weight=0 78754 37886 52848 36067 22361 20960 1819 1717 13706 31888 25906 5058 20848
internal_count=116640 78754 37886 52848 36067 22361 20960 1819 1717 13706 31888 25906 5058 20848
is_linear=0
shrinkage=0.2


Tree=39
num_leaves=16
num_cat=0
split_feature=2 4 2 4 2 2 4 2 4 2 2 4 4 2 2
split_gain=139.399 23.0909 15.1462 15.895 14.1433 26.5775 13.2142 12.4412 10.6406 14.1548 8.17229 6.67225 5.21433 15.8487 9.87642
threshold=-0.93717450228706467 -0.45828588171578916 -0.62261634141353828 0.69633569337881085 -1.0008885864922508 -1.0187312291515564 -1.754801032403172 -0.7422870427305609 -0.65680304488383134 -1.0462151901634626 -1.0008885864922508 -0.31677276195011372 0.70954029406943186 -0.48917385695282534 3.5702482656195973
decision_type=2 2 2 2 2 2 2 2 2 2 2 2 2 2 2
left_child=1 8 3 6 5 -3 -2 -5 9 -1 -10 -6 14 -14 -4
right_child=2 4 12 7 11 -7 -8 -9 10 -11 -12 -13 13 -15 -16
leaf_value=0.00015266135872382897 0.0020203259153728169 0.00045197177593208628 -0.00037337228027761954 -1.4247989663707133e-05 0.0011897086172729056 0.0050026325791572516 -0.00016808874410725796 0.0015912553033948528 0.0015207325932570285 0.0013814507823131635 0.0011898562537091069 -0.00042351503060562785 0.0004697739678328264 -0.0010794474345831582 0.0017232310542765448
leaf_weight=504 238 1135 65590 1279 159 193 16359 1654 338 1560 241 968 1720 24396 306
leaf_count=504 238 1135 65590 1279 159 193 16359 1654 338 1560 241 968 1720 24396 306
internal_value=0 0.0290781 -0.00474118 0.000317456 0.015112 0.0290964 -0.0020811 0.0138902 0.0420507 0.0353295 0.0660104 -0.00136646 -0.0058149 -0.00820647 -0.00486707
internal_weight=0 5098 111542 19530 2455 1328 16597 2933 2643 2064 579 1127 92012 26116 65896
internal_count=116640 5098 111542 19530 2455 1328 16597 2933 2643 2064 579 1127 92012 26116 65896
is_linear=0
shrinkage=0.2


Tree=40
num_leaves=16
num_cat=0
split_feature=0 0 0 0 8 0 0 8 0 8 8 0 0 8 0
split_gain=351.42 45.6358 38.8512 22.1937 8.09519 7.44058 10.1693 7.42902 5.14502 5.03894 11.2869 9.18676 2.88786 1.42141 1.00027
threshold=0.11382275258119035 -0.16983818152660765 2.0554676272958194 0.43739438824549998 -1.2851927996147683 -0.024027543215585912 0.063829130418965874 -1.4165432151615514 -0.073612589218611982 -1.3835271344160891 -1.2378958808321434 2.1116083077834551 -0.22740917502488658 0.22429116613945413 -0.35431130064047217
decision_type=2 2 2 2 2 2 2 2 2 2 2 2 2 2 2
left_child=1 12 3 4 -2 8 -7 -5 -3 11 -11 -4 14 -14 -1
right_child=2 5 9 7 -6 6 -8 -9 -10 10 -12 -13 13 -15 -16
leaf_value=-0.0038722506825983149 0.00080134887641519032 -0.00056649947585223884 0.0043586996400417329 1.9393907626975119e-05 0.00012258248452738801 -7.1457016094832724e-06 -0.0011061864052181092 0.00076675295928034309 -0.0010756858141330375 0.0022139127428168976 0.0023415282498270092 -0.00014233417328188475 -0.0013597556531233306 -0.0023899794736746711 -0.0027008341355816046
leaf_weight=13434 2061 17980 57 1853 16217 9638 3632 24108 8814 149 2723 279 2912 2171 10612
leaf_count=13434 2061 17980 57 1853 16217 9638 3632 24108 8814 149 2723 279 2912 2171 10612
internal_value=0 -0.0118547 0.010493 0.00895183 0.00361308 -0.00747504 -0.00360211 0.0127106 -0.00939315 0.0317456 0.0344568 0.00857142 -0.0178784 -0.0135471 -0.018794
internal_weight=0 69193 47447 44239 18278 40064 13270 25961 26794 3208 2872 336 29129 5083 24046
internal_count=116640 69193 47447 44239 18278 40064 13270 25961 26794 3208 2872 336 29129 5083 24046
is_linear=0
shrinkage=0.2


Tree=41
num_leaves=16
num_cat=0
split_feature=0 2 0 2 2 0 0 2 0 0 0 0 2 0 0
split_gain=232.781 163.709 136.453 118.022 49.8454 42.1784 36.0728 51.8177 19.5621 14.7925 14.2582 11.5949 10.6516 8.80309 7.02439
threshold=0.11382275258119035 -0.93717450228706467 -0.28108891393760999 -0.84823443591568826 -0.18985998563379533 0.46128188269450143 -0.15548987645690235 -0.48412363658806506 -0.37972841636923271 1.2887829894065501 0.82412560634795196 -0.048235113643503129 5.8833118455258075 1.8872672755836561 0.18553609799188384
decision_type=2 2 2 2 2 2 2 2 2 2 2 2 2 2 2
left_child=1 2 8 10 9 -6 12 -8 -1 -5 14 -4 -3 -12 -2
right_child=3 6 11 4 5 -7 7 -9 -10 -11 13 -13 -14 -15 -16
leaf_value=-0.0016163110742844719 0.00020195170205421564 -0.0028382577858837785 0.0011341665195896756 0.0010756978716488499 -0.00057788859090190394 0.00049460002226199996 8.5424605502684166e-05 -0.001909789085593799 0.00039396841698968943 0.00063000279972312285 0.0037154101777452375 0.0015914782103368036 0.0027272372909334154 0.0029433764544935684 0.0038834309953473659
leaf_weight=1571 82 28047 1747 9494 13390 18874 12287 23990 1078 4823 408 397 76 81 295
leaf_count=1571 82 28047 1747 9494 13390 18874 12287 23990 1078 4823 408 397 76 81 295
internal_value=0 -0.0104268 0.0252326 0.0077615 0.00640132 0.00204314 -0.0130808 -0.00891309 -0.00512647 0.0162227 0.08 0.0627425 -0.0184568 0.0458487 0.08
internal_weight=0 69193 4793 47447 46581 32264 64400 36277 2649 14317 866 2144 28123 489 377
internal_count=116640 69193 4793 47447 46581 32264 64400 36277 2649 14317 866 2144 28123 489 377
is_linear=0
shrinkage=0.2


Tree=42
num_leaves=16
num_cat=0
split_feature=0 0 0 0 7 7 7 0 0 0 0 7 0 7 0
split_gain=180.286 27.9959 25.0982 12.2857 11.8442 7.76341 10.2167 3.884 3.30719 2.39985 9.40455 3.39014 2.35922 1.43332 0.158039
threshold=-0.024027543215585912 1.8743155729262055 -0.24352431682653011 0.3132399423047923 -2.4484574742498642 0.67678277152613298 -0.28216464459215856 -0.37972841636923271 2.0554676272958194 -0.073612589218611982 -0.08762682660515099 0.42319761089877223 0.063829130418965874 -0.085600664826539524 -0.40437176921829537
decision_type=2 2 2 2 2 2 2 2 2 2 2 2 2 2 2
left_child=2 3 7 12 -5 6 -3 14 -7 10 -4 -11 -2 -9 -1
right_child=1 5 9 4 -6 8 -8 13 -10 11 -12 -13 -14 -15 -16
leaf_value=-0.0054540064774213741 0.00016186555927327206 0.0010712823019793771 -0.00072805807766103165 0.00094687500717333855 0.00031762175219780418 -0.00014204888103583693 0.0021089788093354828 -0.0018163976636712748 0.00056271689272080776 -0.0010045438435855349 0.00022670370839329167 -0.00053444690156179706 -0.0001535504943838312 -0.0015213647105366337 -0.00096956567614916707
leaf_weight=9275 9638 2127 21216 375 27417 861 2688 5353 728 6069 2755 2745 16883 7112 1398
leaf_count=9275 9638 2127 21216 375 27417 861 2688 5353 728 6069 2755 2745 16883 7112 1398
internal_value=0 0.0040328 -0.0117065 0.00255813 0.00549654 0.0165397 0.02054 -0.0167499 0.00441787 -0.00814702 -0.00710943 -0.0109689 -0.000521101 -0.0143522 -0.0195503
internal_weight=0 60717 55923 54313 27792 6404 4815 23138 1589 32785 23971 8814 26521 12465 10673
internal_count=116640 60717 55923 54313 27792 6404 4815 23138 1589 32785 23971 8814 26521 12465 10673
is_linear=0
shrinkage=0.2


Tree=43
num_leaves=16
num_cat=0
split_feature=2 2 2 8 8 8 8 8 8 8 2 8 2 8 2
split_gain=145.064 22.8211 13.8664 12.1952 25.1768 16.9838 11.5288 26.1882 8.86035 8.2701 7.65403 4.21007 0.938889 0.216457 0.10974
threshold=-0.93717450228706467 -0.84823443591568826 -0.13332519154027975 1.4535409470392888 0.79626237841863012 0.55367552891532157 0.22429116613945413 0.58514982918403347 -1.2851927996147683 1.7102616341147765 -0.85877396796069461 1.7157651778646594 -1.0462151901634626 0.92275382467982969 -0.97383917579832902
decision_type=2 2 2 2 2 2 2 2 2 2 2 2 2 2 2
left_child=3 6 8 4 5 -1 10 -8 -3 12 -2 -4 -5 -6 -11
right_child=1 2 11 9 13 -7 7 -9 -10 14 -12 -13 -14 -15 -16
leaf_value=0.00078215907197582877 -7.8852047434607101e-05 0.00031909818124532308 -0.0006999999098745071 0.0013066173890562305 -0.00029196106825843393 0.0010666507666521705 0.0020419804533462539 0.00020214150311700983 -0.0002907842886947525 0.00047235574571502726 0.0017559791180823327 0.0004884191447600397 0.0017183370542382392 -0.00061334944333856227 -0.0013609021868443206
leaf_weight=3913 2478 5653 55030 125 86 463 568 841 46370 35 326 276 45 411 20
leaf_count=3913 2478 5653 55030 125 86 463 568 841 46370 35 326 276 45 411 20
internal_value=0 -0.00491152 -0.0054783 0.0295881 0.0274861 0.0323309 0.00952765 0.0242867 -0.00313439 0.0751111 0.00211126 -0.00768308 0.08 -0.015171 0.00181818
internal_weight=0 111542 107329 5098 4873 4376 4213 1409 52023 225 2804 55306 170 497 55
internal_count=116640 111542 107329 5098 4873 4376 4213 1409 52023 225 2804 55306 170 497 55
is_linear=0
shrinkage=0.2


Tree=44
num_leaves=16
num_cat=0
split_feature=5 5 5 8 5 5 8 8 8 8 8 5 5 8 8
split_gain=150.342 59.2855 56.5899 22.7942 14.174 6.42034 12.2288 9.94444 6.06416 3.11217 1.74674 1.70193 1.48789 4.1393 1.04247
threshold=0.0090945813115193719 0.01319689921491372 0.011873419256720485 1.6598211087783901 0.012534986370352998 -0.010260783474081575 1.3630819123918498 1.6151180275577952 0.32447563943104912 0.31133381072697525 0.086796588957255685 0.016043576645007527 0.008958773802078223 -1.2008605137258686 1.1998045601614942
decision_type=2 2 2 2 2 2 2 2 2 2 2 2 2 2 2
left_child=5 2 3 -2 -4 6 10 -8 9 -3 -1 -10 14 -14 -7
right_child=1 8 4 -5 -6 12 7 -9 11 -11 -12 -13 13 -15 -16
leaf_value=-0.00055252611636020469 2.4552170631763349e-05 -0.00034985359707742804 0.00068704680740028874 0.0008295421953856681 0.0014368331636903688 -0.0016783631230566894 0.0008203490467900477 -0.0012781649064358969 -0.00077577732038326154 0.00059644106631276124 0.00028212088483010758 -0.00082727671764750398 0.00095724763097934965 -0.00078768463344331362 -0.0010714061963286053
leaf_weight=967 47395 13727 9161 2627 5035 23741 108 54 2509 78 403 2671 133 1250 6781
leaf_count=967 47395 13727 9161 2627 5035 23741 108 54 2509 78 403 2671 133 1250 6781
internal_value=0 0.00163864 0.0045414 0.00137859 0.0156861 -0.0142399 -0.00159269 0.0503704 -0.00818015 -0.00599059 -0.00773723 -0.0140154 -0.0148472 -0.00843095 -0.0151379
internal_weight=0 83203 64218 50022 14196 33437 1532 162 18985 13805 1370 5180 31905 1383 30522
internal_count=116640 83203 64218 50022 14196 33437 1532 162 18985 13805 1370 5180 31905 1383 30522
is_linear=0
shrinkage=0.2


Tree=45
num_leaves=16
num_cat=0
split_feature=8 6 8 6 8 6 8 6 6 8 8 6 8 6 8
split_gain=6.23806 16.4276 34.5194 23.0691 20.2059 8.42416 12.6048 8.38885 8.36791 8.32125 7.19072 6.67182 4.42352 4.30096 3.35755
threshold=-1.1909158109710827 -0.9327130477021679 -1.4066315389977946 -0.93269257320609644 -1.4165432151615514 1.0723416359970857 0.71270185043025458 -0.93273284037169757 1.0720166876378967 0.52559911764450662 1.2124667273486414 1.0723552586637477 -0.19706593453352497 -0.932732840209337 -1.2008605137258686
decision_type=2 2 2 2 2 2 2 2 2 2 2 2 2 2 2
left_child=1 4 3 -3 13 8 9 -6 10 -7 -2 -8 -10 -1 -4
right_child=5 2 14 -5 7 6 11 -9 12 -11 -12 -13 -14 -15 -16
leaf_value=-0.00044367169644120725 -0.00026954184857137857 0.0024233663157338502 -0.00063767996503191879 0.00029201668075665713 0.00084102923486469082 5.6404724635046138e-05 0.0011828925210487992 -2.3645994885290658e-05 -0.0012569292335606287 0.00070506325241428492 0.0013860695863383956 -0.00023028121567985086 -0.00046678098404845099 -0.0012912763835704871 0.0032359433332771713
leaf_weight=2964 48894 950 1817 776 2861 9092 309 4189 3155 3559 334 28837 5031 3766 106
leaf_count=2964 48894 950 1817 776 2861 9092 309 4189 3155 3559 334 28837 5031 3766 106
internal_value=0 0.000953578 0.0128857 0.0334183 -0.0022061 -0.00314905 -0.000989071 0.00527659 -0.0047215 0.00428266 -0.0037369 -0.0032773 -0.0106426 -0.0100446 -0.00554343
internal_weight=0 17429 3649 1726 13780 99211 41797 7050 57414 12651 49228 29146 8186 6730 1923
internal_count=116640 17429 3649 1726 13780 99211 41797 7050 57414 12651 49228 29146 8186 6730 1923
is_linear=0
shrinkage=0.2


Tree=46
num_leaves=15
num_cat=0
split_feature=4 7 4 4 4 7 7 4 7 4 7 7 7 7
split_gain=3.99157 8.79874 3.77039 3.15912 3.06918 2.41222 2.19122 2.35107 2.23982 1.5877 1.47416 1.40152 0.796475 1.58041
threshold=-1.836343360742436 0.75243523036545323 -0.26239079712296171 0.93288744752658881 0.89404755043126427 1.0996354984205075 1.442548765464527 -1.0832574804574515 0.0356576944825251 -1.9237808103533258 0.90732280115266406 0.5538107578642314 0.49868932363763124 0.61602196201137172
decision_type=2 2 2 2 2 2 2 2 2 2 2 2 2 2
left_child=1 12 6 4 -4 10 8 -8 -2 -7 -3 -5 -1 -14
right_child=2 5 3 11 -6 9 7 -9 -10 -11 -12 -13 13 -15
leaf_value=-0.0025053836374681606 -0.00033117284044157248 0.0010662525836834444 -4.2013511868525816e-05 -0.00018619001833528401 0.00050779615242054171 0.00083311764515331507 -0.0009728078307801283 -0.00016442658040276883 -0.00013648891756773312 0.0034753142066909939 0.002992894690297382 -0.00071122862869034799 0.0016034163572734715 -0.0012189446943553395
leaf_weight=328 18941 174 38130 20472 1379 718 1929 2024 30411 152 246 1481 87 168
leaf_count=328 18941 174 38130 20472 1379 718 1929 2024 30411 152 246 1481 87 168
internal_value=0 0.0069087 -0.00239913 -0.00133156 -0.00026273 0.016124 -0.00363006 -0.0081609 -0.00326715 0.0101149 0.0285714 -0.00325514 -0.013482 -0.00509804
internal_weight=0 1873 114767 61462 39509 1290 53305 3953 49352 870 420 21953 583 255
internal_count=116640 1873 114767 61462 39509 1290 53305 3953 49352 870 420 21953 583 255
is_linear=0
shrinkage=0.2


Tree=47
num_leaves=16
num_cat=0
split_feature=0 0 0 0 7 7 0 0 0 7 0 7 7 7 0
split_gain=219.056 41.1573 30.4704 10.3693 9.13085 6.86605 6.43149 5.9423 9.10786 4.82768 3.17832 4.00591 2.25423 1.49739 0.59128
threshold=0.029970042339931547 0.60307769302576542 -0.19608377238549132 2.2670206114462501 -0.16874245838455712 -1.5391576157064082 -0.37972841636923271 0.058555949008037504 0.10911849889786054 0.5538107578642314 -0.024027543215585912 -1.8128435678592776 -1.5391576157064082 1.0584950742221477 -0.43781217902595476
decision_type=2 2 2 2 2 2 2 2 2 2 2 2 2 2 2
left_child=2 7 6 5 -5 -3 14 9 -9 -2 12 -12 -4 -8 -1
right_child=1 3 10 4 -6 -7 13 8 -10 -11 11 -13 -14 -15 -16
leaf_value=-0.0052134012228575721 0.00096672706149748084 0.0013514448973902665 -0.0010284115556512378 0.0026793395657525223 0.00067778625064521822 0.00062307851333763282 -0.0012091454973381498 -0.00059109667283199026 0.00017680975132205982 -0.00095671309820795575 0.00043281272990029486 -0.00026718294425959855 -0.00044363800562660546 -0.0024796460733583891 -0.0014612636870075719
leaf_weight=7413 2051 1130 1406 514 842 21694 13905 3628 23719 703 275 6161 28611 1328 3260
leaf_count=7413 2051 1130 1406 514 842 21694 13905 3628 23719 703 275 6161 28611 1328 3260
internal_value=0 0.00745343 -0.00992287 0.013598 0.03059 0.0125885 -0.0151671 0.00251752 0.00162577 0.0113725 -0.00619593 -0.00216284 -0.00706067 -0.0125294 -0.0189319
internal_weight=0 54281 62359 24180 1356 22824 25906 30101 27347 2754 36453 6436 30017 15233 10673
internal_count=116640 54281 62359 24180 1356 22824 25906 30101 27347 2754 36453 6436 30017 15233 10673
is_linear=0
shrinkage=0.2


Tree=48
num_leaves=16
num_cat=0
split_feature=8 9 8 8 8 8 8 8 8 8 9 9 9 8 9
split_gain=2.65951 8.57298 5.16382 31.2602 9.64154 7.54122 15.488 3.67718 4.79269 3.06286 2.87593 0.579949 0.194823 0.0542282 0.0145978
threshold=-1.2469393610743906 -1.4323687282252868 -0.19706593453352497 -0.16618910202283413 -0.17287734481606692 -0.52254199170220483 -0.54295434626193895 -1.2549029494245953 -1.2937593406699086 -0.15112162197990842 -0.32000213224726121 -1.2318864591919507 -1.4431842684336387 -1.4314474883252217 -1.4431842743324546
decision_type=2 2 2 2 2 2 2 2 2 2 2 2 2 2 2
left_child=1 12 5 4 -4 6 -2 8 -3 -5 -7 -9 14 -14 -1
right_child=2 7 3 9 -6 10 -8 11 -10 -11 -12 -13 13 -15 -16
leaf_value=-0.0003341505439004046 -0.00020071789221171697 0.00040103224666948264 0.00048644682745028496 -0.001290273585098214 0.0019247658097749976 -0.00065144484507675526 0.0013270847498597464 0.0023696679071505636 -0.00058388030520898151 -0.00010441078424729654 -0.0003660236021537896 -0.00022260129575430514 -0.00028302437139411397 -0.0004135281933406378 -0.00016725685575056954
leaf_weight=3006 28972 5504 816 388 407 7166 784 410 1633 58592 4489 20 2429 243 1781
leaf_count=3006 28972 5504 816 388 407 7166 784 410 1633 58592 4489 20 2429 243 1781
internal_value=0 0.00055104 -0.00229969 -0.00111722 0.0305315 -0.00401874 -0.00232962 0.00529404 0.00421185 -0.00177349 -0.00833119 0.0232558 -0.00426063 -0.00562875 -0.00349698
internal_weight=0 15026 101614 60203 1223 41411 29756 7567 7137 58980 11655 430 7459 2672 4787
internal_count=116640 15026 101614 60203 1223 41411 29756 7567 7137 58980 11655 430 7459 2672 4787
is_linear=0
shrinkage=0.2


Tree=49
num_leaves=16
num_cat=0
split_feature=6 8 6 8 6 6 8 6 8 8 8 8 8 8 8
split_gain=5.95577 5.9214 12.8647 20.4721 14.0347 5.13693 10.3116 4.5189 2.97092 10.7193 3.84127 2.78265 0.0470852 0.0707514 0.00247672
threshold=-0.93273284037185389 -1.3124830997484607 -0.9327130477021679 -1.3940180847027024 -0.93270415102704207 -0.93273284037184723 -1.2655427886219222 -0.93273284037182991 -0.19706593453352497 -0.31756586864702291 -0.26361048446575458 -1.4165432151615514 0.46632479544908839 0.6111297195359936 0.014947104978664172
decision_type=2 2 2 2 2 2 2 2 2 2 2 2 2 2 2
left_child=8 2 3 -2 -4 6 -3 -7 9 11 -11 -1 14 -14 -10
right_child=1 5 4 -5 -6 7 -8 -9 12 10 -12 -13 13 -15 -16
leaf_value=-0.0025285995495267209 -0.0004538156296703194 0.0079965556022211261 0.0024233975149701688 0.00067358838423421717 0.00021826352876455147 -0.0012389037998640608 0.00017109740933847931 -0.00010349654569500802 -0.0013162574997909516 0.0017119415602726675 -0.0011977154585256446 -0.00031028522123395644 -0.0013504188685908641 -0.0013821079465804063 -0.0018324307812372981
leaf_weight=1894 5246 25 659 1632 1781 541 290 96246 332 162 63 7401 31 101 236
leaf_count=1894 5246 25 659 1632 1781 541 290 96246 332 162 63 7401 31 101 236
internal_value=0 -0.00122722 0.00358875 -0.000837458 0.0160656 -0.00168936 0.0238095 -0.00177235 -0.00628181 -0.00535715 0.0377778 -0.0064013 -0.0188571 -0.0154546 -0.0196479
internal_weight=0 106420 9318 6878 2440 97102 315 96787 10220 9520 225 9295 700 132 568
internal_count=116640 106420 9318 6878 2440 97102 315 96787 10220 9520 225 9295 700 132 568
is_linear=0
shrinkage=0.2


Tree=50
num_leaves=16
num_cat=0
split_feature=0 0 0 4 0 4 0 0 4 0 4 0 0 4 0
split_gain=168.705 35.4908 21.6362 20.9949 18.765 18.4732 16.5253 13.7723 7.79479 7.21772 6.19528 5.78292 2.19393 0.670655 0.0334891
threshold=-0.028552644615260234 0.43739438824549998 -0.37972841636923271 0.1593218958069097 0.37142634026456151 -1.0571382961009494 0.37142634026456151 1.8743155729262055 0.45158327670632598 -0.16109009819793016 -2.2741253305093858 0.69034203467741573 -0.45622413206747858 0.17329022946836059 -0.49874980177198397
decision_type=2 2 2 2 2 2 2 2 2 2 2 2 2 2 2
left_child=2 3 12 4 -2 11 -5 -7 10 -10 -4 -3 14 -14 -1
right_child=1 5 8 6 -6 7 -8 -9 9 -11 -12 -13 13 -15 -16
leaf_value=-0.0048957266710808224 0.00044873441064707933 0.00060945927444564917 0.0013186834803924237 -0.00076382670148153779 -0.00053032842196521705 0.00053433083137481108 0.0010277248351929773 0.0013297147754195737 -0.00074615393946665101 1.5009946324189331e-06 -0.00068378392895189575 -0.00015040082092904227 -0.0010119913089539222 -0.0024598793179616998 -0.0020928301273715213
leaf_weight=5557 16285 595 202 12963 2132 19273 632 5467 6382 8643 29559 3834 2848 1346 922
leaf_count=5557 16285 595 202 12963 2132 19273 632 5467 6382 8643 29559 3834 2848 1346 922
internal_value=0 0.0058152 -0.00941561 0.00121704 0.00561763 0.0108615 -0.0047444 0.0129911 -0.00748717 -0.00377372 -0.00936192 -0.0010341 -0.0175077 -0.0139437 -0.0198148
internal_weight=0 61181 55459 32012 18417 29169 13595 24740 44786 15025 29761 4429 10673 4194 6479
internal_count=116640 61181 55459 32012 18417 29169 13595 24740 44786 15025 29761 4429 10673 4194 6479
is_linear=0
shrinkage=0.2


Tree=51
num_leaves=16
num_cat=0
split_feature=0 0 0 0 0 6 6 6 6 6 6 6 0 6 0
split_gain=111.675 26.0927 16.211 11.2832 6.42561 7.31819 5.77089 17.469 5.24172 5.01518 3.95888 2.96316 0.00737984 0.00948617 0.000887283
threshold=0.025846978305396531 -0.47966623430079652 0.60307769302576542 -0.20423368091105473 2.0554676272958194 -0.93268996766916745 1.0724169677898077 1.0724505521744665 1.0724505522417631 1.0721895658485103 1.0724505522417631 1.0724505513200837 -0.49874980177198397 -0.93263158957381609 -0.52854308680073847
decision_type=2 2 2 2 2 2 2 2 2 2 2 2 2 2 2
left_child=1 12 6 11 8 -6 9 -8 -4 -2 -5 -3 14 -14 -1
right_child=2 3 4 10 5 -7 7 -9 -10 -11 -12 -13 13 -15 -16
leaf_value=-0.0041648841696363126 0.00012128195824795648 -0.00089533246088903179 0.00036899705162669492 -0.00019340076909125039 0.0019905402427705362 0.00058706835612446764 0.00067676900411296498 -0.0004406368354072539 0.002718173863608109 -0.00025839811379077337 -0.00087285132114440296 -0.00025221044541769817 -0.0017674863900242423 -0.0014977983652295192 -0.0022449743934355518
leaf_weight=4620 18020 17466 19900 34373 1083 2125 5415 2570 1072 4569 2069 1961 220 240 937
leaf_count=4620 18020 17466 19900 34373 1083 2125 5415 2570 1072 4569 2069 1961 220 240 937
internal_value=0 -0.00738649 0.00501369 -0.00603877 0.00888337 0.0172194 0.00195329 0.00657482 0.00760823 0.00031962 -0.00396356 -0.00993154 -0.0199003 -0.0191304 -0.019964
internal_weight=0 61886 54754 55869 24180 3208 30574 7985 20972 22589 36442 19427 6017 460 5557
internal_count=116640 61886 54754 55869 24180 3208 30574 7985 20972 22589 36442 19427 6017 460 5557
is_linear=0
shrinkage=0.2


Tree=52
num_leaves=16
num_cat=0
split_feature=0 0 0 6 6 6 6 6 6 6 0 0 0 6 0
split_gain=77.7648 22.4419 11.1081 10.8466 9.92007 5.86214 32.3909 5.14931 9.22528 6.06143 4.76147 1.36126 0.450057 0.451966 0.00193142
threshold=-0.024027543215585912 -0.47966623430079652 0.69034203467741573 -0.93273284037185389 -0.93273284037182447 -0.9327328344164888 -0.93273282828439019 -0.93273283988500644 -0.9327328400129834 -0.93271795102825295 1.8743155729262055 -0.28108891393760999 -0.54731178063843011 -0.93270043680593306 -0.56100120264747833
decision_type=2 2 2 2 2 2 2 2 2 2 2 2 2 2 2
left_child=1 12 7 11 -5 10 -7 8 -2 -9 -4 -3 14 -14 -1
right_child=2 3 5 4 -6 6 -8 9 -10 -11 -12 -13 13 -15 -16
leaf_value=-0.004089046093304005 0.00029394525266065704 -0.0014976591329917287 -0.00011561297430450905 0.00037354942723540898 -0.00035312365464482256 0.0026373572180612512 0.00041651954336644848 -0.00043374858114683537 0.0015429451663021732 8.8698156133797823e-05 0.00091464667532011881 -0.00070484088344541251 -0.0020274366680640365 -0.00091916719145343148 -0.0030902667330343983
leaf_weight=3233 5041 1509 4284 1007 44035 606 17281 6268 131 25554 1552 3355 871 1459 454
leaf_count=3233 5041 1509 4284 1007 44035 606 17281 6268 131 25554 1552 3355 871 1459 454
internal_value=0 -0.00703217 0.00330484 -0.00564101 -0.00467209 0.00668296 0.00847878 0.00113856 0.00699149 0.000187287 0.00117888 -0.0146135 -0.0185707 -0.0163949 -0.0199458
internal_weight=0 55923 60717 49906 45042 23723 17887 36994 5172 31822 5836 4864 6017 2330 3687
internal_count=116640 55923 60717 49906 45042 23723 17887 36994 5172 31822 5836 4864 6017 2330 3687
is_linear=0
shrinkage=0.2


Tree=53
num_leaves=16
num_cat=0
split_feature=2 1 1 2 2 1 1 2 2 1 2 1 1 1 1
split_gain=329.576 114.23 74.7926 51.7593 41.8011 39.6066 30.2395 31.9541 25.4531 28.7608 18.4464 13.3763 12.2541 7.60627 2.0984
threshold=-0.84823443591568826 -0.024201194699469252 -0.22755504265050447 -0.13332519154027975 -0.95014720984650847 0.44332053941431149 -0.52778375475015415 -0.95014720984650847 -0.48917385695282534 -0.33145403812825175 5.8833118455258075 1.2853187900005503 0.38489379769974558 -0.044912440665366753 -0.54748834502759081
decision_type=2 2 2 2 2 2 2 2 2 2 2 2 2 2 2
left_child=2 8 6 11 13 -5 14 -8 9 -2 -10 -3 -6 -4 -1
right_child=1 3 4 5 12 -7 7 -9 10 -11 -12 -13 -14 -15 -16
leaf_value=-0.0018054335812270066 -0.0017921920203810709 0.00064919989613765078 0.0011031598807262747 -0.00097969781099358747 0.0009644418018146067 0.000184747226616744 0.0010277660859349816 0.00013149228085639061 -0.0019022962202102627 -8.0054559656551953e-06 0.0025436423953004942 1.0959593653827832e-05 4.8691320657665017e-05 0.0020406879039980342 5.5881926655830549e-05
leaf_weight=877 5434 16502 1447 19032 2412 18485 1908 1449 30639 11836 112 5289 326 578 314
leaf_count=877 5434 16502 1447 19032 2412 18485 1908 1449 30639 11836 112 5289 326 578 314
internal_value=0 -0.00460249 0.0346236 0.00126863 0.0521394 -0.00323427 0.0162797 0.0259934 -0.0118536 -0.00570933 -0.0153042 0.00902115 0.0360263 0.0739259 -0.0110999
internal_weight=0 107329 9311 59308 4763 37517 4548 3357 48021 17270 30751 21791 2738 2025 1191
internal_count=116640 107329 9311 59308 4763 37517 4548 3357 48021 17270 30751 21791 2738 2025 1191
is_linear=0
shrinkage=0.2


Tree=54
num_leaves=16
num_cat=0
split_feature=4 9 9 4 9 4 4 9 9 9 4 9 9 4 9
split_gain=5.51831 15.9539 9.10283 8.74153 10.998 6.47351 5.70628 26.9291 5.32238 4.09418 3.58968 3.80111 2.8458 2.76954 1.3259
threshold=-0.02822540303938376 -0.32000213224726121 -0.66330200185287802 0.10154545135841254 1.2477629385429587 -1.2500418473343597 -1.836343360742436 -1.171878120743965 -0.83139840324177838 0.31211384235407313 0.23314199481624645 -0.54166144268403416 -0.33019279128835405 -0.42605448178196043 0.20437423836440791
decision_type=2 2 2 2 2 2 2 2 2 2 2 2 2 2 2
left_child=2 10 6 4 -3 14 7 -1 -8 -5 12 -12 -2 -7 -4
right_child=1 3 5 9 -6 13 8 -9 -10 -11 11 -13 -14 -15 -16
leaf_value=0.0018638359585596122 -0.00087641731850354959 0.00071440731617195561 -0.00092982778446750413 0.00039031383364506004 -0.00065284721899717729 -0.00020510830359483565 -0.00012078649581944463 -0.0016252679533743299 0.00029241920302563605 -2.4942808748639001e-05 -0.00015931655314794987 -0.0017090474370100525 0.00053924638046322945 -0.000408382091240037 -0.0001555098568794544
leaf_weight=898 3323 1884 2136 8503 568 21296 22726 666 4247 26866 9827 2181 33 11139 347
leaf_count=898 3323 1884 2136 8503 568 21296 22726 666 4247 26866 9827 2181 33 11139 347
internal_value=0 -0.000558433 -0.00332047 0.00164934 0.0131974 -0.005486 -0.000670713 0.0110742 -0.00135173 0.000848761 -0.00599324 -0.00437709 -0.0117759 -0.00473255 -0.0153282
internal_weight=0 53185 63455 37821 2452 34918 28537 1564 26973 35369 15364 12008 3356 32435 2483
internal_count=116640 53185 63455 37821 2452 34918 28537 1564 26973 35369 15364 12008 3356 32435 2483
is_linear=0
shrinkage=0.2


Tree=55
num_leaves=16
num_cat=0
split_feature=5 5 6 5 5 6 6 6 6 5 6 6 5 5 5
split_gain=186.962 90.5114 38.764 18.584 10.821 5.16831 3.93985 1.49904 1.88054 3.87113 0.490661 3.33298 0.319433 0.310742 0.00749159
threshold=0.009051309854937557 0.013516362219747795 1.0724505324281923 0.011897617327944034 0.013151324116930279 1.0724323418835036 1.0723650146247872 -0.93273282220312781 1.0724505520794325 0.008958773802078223 -0.93273283885524483 -0.9327328400129834 0.020965777698162106 0.0088679700014072955 0.0087723307046493355
decision_type=2 2 2 2 2 2 2 2 2 2 2 2 2 2 2
left_child=7 2 3 -2 -4 6 -3 10 9 -9 11 -1 -7 -10 -12
right_child=1 5 4 -5 -6 12 -8 8 13 -11 14 -13 -14 -15 -16
leaf_value=-0.0014766483627943654 0.0001371109850029144 -0.00046123556869004552 0.00086206864279339079 0.00050581361097910935 -0.0015941217901097576 -0.001800253890721557 9.6774981539049412e-05 -0.0012121773308061128 -0.0018935327219072368 0.00017905141173806268 -0.0019777967856696669 -3.5622880488330763e-05 -0.00094096536147096523 -0.0014072957396320605 -0.0016336870907784438
leaf_weight=3216 42108 13300 10331 13772 294 1544 1554 21582 4693 511 1591 575 758 389 422
leaf_count=3216 42108 13300 10331 13772 294 1544 1554 21582 4693 511 1591 575 758 389 422
internal_value=0 0.00342071 0.00676189 0.0046564 0.0178353 -0.00953136 -0.00816481 -0.0143601 -0.0137369 -0.0129389 -0.0172777 -0.0159378 -0.0183493 -0.0172058 -0.0198013
internal_weight=0 83661 66505 55880 10625 17156 14854 32979 27175 22093 5804 3791 2302 5082 2013
internal_count=116640 83661 66505 55880 10625 17156 14854 32979 27175 22093 5804 3791 2302 5082 2013
is_linear=0
shrinkage=0.2


Tree=56
num_leaves=16
num_cat=0
split_feature=5 4 5 5 5 5 4 5 5 4 5 4 4 4 4
split_gain=126.696 120.445 48.1961 95.1026 24.8745 45.4971 7.90244 11.1346 35.4745 4.81593 13.8116 3.22835 2.88755 2.16093 2.02752
threshold=0.009051309854937557 0.50954205130932528 0.01319689921491372 0.010832613084904295 0.013516362219747795 0.011075712937220991 -0.067566696105831908 0.007395899637543747 0.0075826020435625389 1.7680788422135276 -0.073911733728945786 -0.83449680924413761 1.3703791299991952 0.50954205130932528 -0.080855297730922357
decision_type=2 2 2 2 2 2 2 2 2 2 2 2 2 2 2
left_child=6 4 3 -3 5 -2 7 14 -9 13 -11 -6 -4 -8 -1
right_child=1 2 12 -5 11 -7 9 8 -10 10 -12 -13 -14 -15 -16
leaf_value=-0.00059387123776044517 -0.00040832404410377342 0.00071004714241930964 -0.00027547284356914739 0.0031626211797628335 -0.00026155075701045014 0.00028273161484722206 -0.0010440738915105541 0.0013120356734412624 -8.3539549610022899e-05 0.0011728264975319922 -0.00092807913615005125 -0.00062036247745636249 -0.001760425112150567 -0.0023343686566446409 0.00015475452681334089
leaf_weight=5823 22571 12152 1778 1714 6775 29846 4841 140 1747 54 3094 8206 619 17245 35
leaf_count=5823 22571 12152 1778 1714 6775 29846 4841 140 1747 54 3094 8206 619 17245 35
internal_value=0 0.00250271 0.0179512 0.022478 -0.00122497 0.000829116 -0.0121344 -0.00654616 0.00681505 -0.0138496 -0.00653114 -0.00841199 -0.0082353 -0.0148927 -0.0108501
internal_weight=0 83661 16263 13866 67398 52417 32979 7745 1887 25234 3148 14981 2397 22086 5858
internal_count=116640 83661 16263 13866 67398 52417 32979 7745 1887 25234 3148 14981 2397 22086 5858
is_linear=0
shrinkage=0.2


Tree=57
num_leaves=15
num_cat=0
split_feature=8 7 7 8 8 8 8 8 8 7 7 7 7 7
split_gain=7.67356 4.04306 3.73283 5.10979 4.34837 4.26293 2.94415 6.91748 5.20902 2.68928 3.24872 0.758052 0.470588 0.021836
threshold=1.7157651778646594 -2.6598426730336042 -0.96213654371890478 0.8857330042987398 0.52559911764450662 1.0195731697485981 1.3128054673533156 1.3415578319477064 1.2225452973849327 -1.108675776994605 -0.93678269979691542 -1.5391576157064082 -3.7494189698658142 -3.0199249311747676
decision_type=2 2 2 2 2 2 2 2 2 2 2 2 2 2
left_child=2 12 6 4 -4 -5 8 -8 -1 11 -11 -3 -2 -14
right_child=1 9 3 5 -6 -7 7 -9 -10 10 -12 -13 13 -15
leaf_value=4.8417947253076578e-06 0.0014626714300574719 0.00087320088375055839 -0.00011224755327102964 -0.00058041711055667 0.00016867257496380351 -0.00029817241743836684 0.0018605986526804175 0.00011021813140034976 -0.00097353287992513367 0.00066983903472177698 0.00025322746411268179 -0.00077830827631056743 0.00069527038417715461 0.00063399521924461524
leaf_weight=4173 9.9999999999999982 157 78230 3107 9517 11409 404 8758 685 48 30 78 11.999999999999995 22.000000000000004
leaf_count=4173 10 157 78230 3107 9517 11409 404 8758 685 48 30 78 12 22
internal_value=0 0.027619 -0.00174798 -0.00216755 -0.00159254 -0.00564343 0.00131241 0.00342283 -0.00266777 0.0196166 0.0517949 0.00893617 0.08 0.0564706
internal_weight=0 357 116283 102263 87747 14516 14020 9162 4858 313 78 235 44 34
internal_count=116640 357 116283 102263 87747 14516 14020 9162 4858 313 78 235 44 34
is_linear=0
shrinkage=0.2


Tree=58
num_leaves=16
num_cat=0
split_feature=0 0 8 0 8 0 8 8 8 0 8 0 0 0 0
split_gain=109.288 35.6411 13.7869 11.7293 5.37218 4.75338 4.70157 4.41006 22.0887 6.77036 3.80876 2.26482 3.12795 1.77192 0.295226
threshold=0.43739438824549998 -0.15300613062646487 1.7102616341147765 -0.47966623430079652 -1.4165432151615514 -0.10240139377991984 0.8857330042987398 -1.0274321124969263 -1.0403791521637429 1.1940235772936838 -1.3124830997484607 0.8866156805408969 1.1940235772936838 0.45245613100087911 -0.56100120264747833
decision_type=2 2 2 2 2 2 2 2 2 2 2 2 2 2 2
left_child=1 3 6 14 11 -4 -3 8 -6 -9 -5 13 -13 -2 -1
right_child=4 2 5 10 7 -7 -8 9 -10 -11 -12 12 -14 -15 -16
leaf_value=-0.0030119766279700713 0.0006290582011116699 -0.00010148152778352458 0.0017083704481327061 -4.8807574405516297e-05 0.00059312012173999887 0.00027623543982455384 -0.00044680061022650753 0.00023646068381208757 0.00061403070591375866 0.00060243822645014548 -0.00053754816931812863 0.00037222160478806604 -6.0034482254648096e-05 -0.0008971577044651507 -0.0013303548439282172
leaf_weight=3233 58 42881 471 2815 3789 2132 10105 11767 234 11218 23050 383 1393 327 2784
leaf_count=3233 58 42881 471 2815 3789 2132 10105 11767 234 11218 23050 383 1393 327 2784
internal_value=0 -0.00492072 -0.00186332 -0.0102516 0.00921594 0.0123473 -0.00256144 0.0099837 0.0160925 0.0089145 -0.00840132 -0.000379459 0.00263513 -0.0142857 -0.0182051
internal_weight=0 87471 55589 31882 29169 2603 52986 27008 4023 22985 25865 2161 1776 385 6017
internal_count=116640 87471 55589 31882 29169 2603 52986 27008 4023 22985 25865 2161 1776 385 6017
is_linear=0
shrinkage=0.2


Tree=59
num_leaves=16
num_cat=0
split_feature=2 2 9 2 9 9 9 9 9 9 9 9 9 9 2
split_gain=212.511 30.6833 22.1364 13.4028 10.353 12.6033 10.9709 8.96019 25.0308 4.72012 4.27947 2.99747 2.99237 6.69863 1.42109e-14
threshold=-0.93717450228706467 -0.82713402318745299 -1.3041335008910326 -0.13332519154027975 1.4011800410922206 1.0466133192141194 1.7180885700755784 0.43869800646963658 0.56687756738683015 1.5056794219009066 1.2075710466056602 -0.73848395457318927 -1.3425419270146079 -1.4431842739276641 -0.96220057995836117
decision_type=2 2 2 2 2 2 2 2 2 2 2 2 2 2 2
left_child=2 7 12 10 5 -4 -6 11 -9 -5 -3 -2 13 -1 -14
right_child=1 3 4 9 6 -7 -8 8 -10 -11 -12 -13 14 -15 -16
leaf_value=0.00090641883646728767 0.00041984023273720006 -0.00011998302511239528 0.00077966866688033716 -0.00050233931570309168 0.001051830878356087 -0.00018227461931763703 -0.0023456782324556506 0.0016266599678564642 0.00022716865734651189 -8.3109357921526503e-05 0.00020865431905881893 3.9584007223712316e-05 0.001843411196256406 0.00051790272486533029 0.0012574577962280607
leaf_weight=101 1660 45221 4258 48464 171 235 44 364 1053 6842 5842 2096 86 161 42
leaf_count=101 1660 45221 4258 48464 171 235 44 364 1053 6842 5842 2096 86 161 42
internal_value=0 -0.00314537 0.0386112 -0.00387689 0.0348003 0.0327487 0.0776744 0.0118964 0.0254481 -0.00603407 -0.00154045 0.00678381 0.08 0.0586259 0.08
internal_weight=0 111542 5098 106369 4708 4493 215 5173 1417 55306 51063 3756 390 262 128
internal_count=116640 111542 5098 106369 4708 4493 215 5173 1417 55306 51063 3756 390 262 128
is_linear=0
shrinkage=0.2


Tree=60
num_leaves=15
num_cat=0
split_feature=5 5 5 8 8 8 5 8 5 8 8 8 8 5
split_gain=98.3133 46.6147 20.0235 8.70991 6.5927 6.02303 19.0874 5.79307 4.02879 3.52765 8.0027 1.70392 0.612653 2.84217e-14
threshold=0.009051309854937557 0.01319689921491372 0.012459321155649581 1.4535409470392888 1.7102616341147765 1.7157651778646594 0.0083837156756072072 0.99041820610572573 0.046276470450462674 1.1998045601614942 1.2225452973849327 1.0958972940157685 1.5101798936377797 0.008958773802078223
decision_type=2 2 2 2 2 2 2 2 2 2 2 2 2 2
left_child=5 2 3 -2 -4 9 -7 8 -3 11 -11 -1 -9 -8
right_child=1 7 4 -5 -6 6 13 12 -10 10 -12 -13 -14 -15
leaf_value=-0.00095126274229811114 0.00016581156325991731 -0.00025392733234588761 0.0007612791523660575 0.00044367425823642288 0.0022914383095495902 -0.0016369754131049863 0.0014110887225126545 -0.00079540008652646723 0.00025978999773851796 0.0016101040987389497 -0.00053901993044631349 -0.0031847660130209289 -0.00056665702106538016 0.00050330713002581524
leaf_weight=24752 53880 15249 5764 4842 190 163 54 1646 810 267 6683 1031 1280 29
leaf_count=24752 53880 15249 5764 4842 190 163 54 1646 810 267 6683 1031 1280 29
internal_value=0 0.00236645 0.00492423 0.00380368 0.0159758 -0.0105273 0.0206504 -0.00634712 -0.00485585 -0.0107616 -0.00676259 -0.0118396 -0.0145318 0.08
internal_weight=0 83661 64676 58722 5954 32979 246 18985 16059 32733 6950 25783 2926 83
internal_count=116640 83661 64676 58722 5954 32979 246 18985 16059 32733 6950 25783 2926 83
is_linear=0
shrinkage=0.2


Tree=61
num_leaves=15
num_cat=0
split_feature=4 8 8 4 8 8 8 4 8 4 8 8 4 8
split_gain=4.06595 7.951 17.7279 28.9063 5.08889 4.63454 3.71942 10.7573 8.88005 9.69172 5.54532 5.452 5.079 3.44859
threshold=-0.26239079712296171 0.6889439039230848 0.6592796792526322 -0.72882739632938065 0.56686742518790367 1.7157651778646594 -0.30503806124453653 -0.11630257598654546 -0.29421450379261138 0.3047896049424797 -1.1060550838888294 -1.2937593406699086 -0.02822540303938376 1.5494512542926808
decision_type=2 2 2 2 2 2 2 2 2 2 2 2 2 2
left_child=1 2 4 -4 -1 13 7 10 9 -8 -2 -9 -10 -3
right_child=6 5 3 -5 -6 -7 8 11 12 -11 -12 -13 -14 -15
leaf_value=-6.9862669728901571e-05 0.00096069409191011353 -0.0004747481396066015 0.002282906448395767 -0.00057105538975008344 -0.001575257896641773 0.00034400260081095469 0.0023367065183922662 0.00015712716451567361 -0.00031005722281465147 -0.00046668245490137932 0.00016089822558790481 -0.00037148253450926109 0.00010237451690996453 8.7753889575098447e-06
leaf_weight=45992 770 6428 113 171 1011 28 107 3074 5570 56 934 13595 37356 1435
leaf_count=45992 770 6428 113 171 1011 28 107 3074 5570 56 934 13595 37356 1435
internal_value=0 -0.0024894 -0.00150866 0.0483099 -0.00180968 -0.0083665 -0.000124309 -0.00250694 0.000891638 0.0474847 0.0126291 -0.00405424 0.000714714 -0.00865573
internal_weight=0 55178 47287 284 47003 7891 61462 18373 43089 163 1704 16669 42926 7863
internal_count=116640 55178 47287 284 47003 7891 61462 18373 43089 163 1704 16669 42926 7863
is_linear=0
shrinkage=0.2


Tree=62
num_leaves=16
num_cat=0
split_feature=6 6 6 7 6 6 7 6 6 6 6 6 6 6 6
split_gain=5.23177 19.3282 15.516 7.63229 6.95564 6.80416 9.88533 6.71883 5.19781 4.96269 2.78473 5.05053 2.565 0.976582 0.286937
threshold=-0.93271795102825295 -0.93261317757416429 1.0723416359970857 1.5861113582726536 -0.93273036065475312 -0.9327328344164888 -0.18842763668061341 -0.93261825597470971 1.072450552241704 -0.93273283762348191 -0.93272222198768018 -0.9327211304811015 1.0720166876378967 -0.93268996766916745 -0.93272502047599237
decision_type=2 2 2 2 2 2 2 2 2 2 2 2 2 2 2
left_child=4 3 12 7 5 9 -7 -2 -4 -1 14 -12 -3 -5 -6
right_child=1 2 8 13 10 6 -8 -9 -10 -11 11 -13 -14 -15 -16
leaf_value=-0.00011931936101215734 0.00029159085407416007 -0.00025540526940110879 7.3680514518069656e-05 -0.00058133837005673659 -0.0011004262085223483 0.0013620151861874045 9.4825275093302712e-05 0.00067921348349581133 -0.00031114667732882849 -0.00044529606172718318 0.00046086574852627956 -0.0013393943916525154 -0.00050177255963415699 -0.0017375069146515828 -0.00070378166449376481
leaf_weight=25356 15119 12889 34126 856 1219 362 4878 378 7676 3226 407 815 8186 330 817
leaf_count=25356 15119 12889 34126 856 1219 362 4878 378 7676 3226 407 815 8186 330 817
internal_value=0 -0.000133238 -0.00173896 0.0059186 -0.00300971 -0.00215955 0.00446564 0.00710201 0.000491838 -0.00337416 -0.0118355 -0.00428806 -0.00616371 -0.00954469 -0.0163654
internal_weight=0 79560 62877 16683 37080 33822 5240 15497 41802 28582 3258 1222 21075 1186 2036
internal_count=116640 79560 62877 16683 37080 33822 5240 15497 41802 28582 3258 1222 21075 1186 2036
is_linear=0
shrinkage=0.2


Tree=63
num_leaves=16
num_cat=0
split_feature=1 2 1 2 1 1 2 2 2 1 1 2 2 1 1
split_gain=137.845 144.724 47.5129 43.381 41.2377 21.4734 17.3244 16.9105 8.46579 9.53047 7.28281 5.58168 7.53574 4.38167 1.69795
threshold=0.43500298097405016 -0.84823443591568826 -0.15280876946550978 -0.13332519154027975 -0.4036108703435643 0.0074246886831842605 5.8833118455258075 -0.61638330616505044 -0.67337596176208703 2.2971493406025849 2.0150756311609963 3.2003921943926072 1.4264860447719123 -0.5606342836422421 0.49025098752918633
decision_type=2 2 2 2 2 2 2 2 2 2 2 2 2 2 2
left_child=1 4 6 -4 13 -6 -3 8 9 -2 -10 12 -9 -1 -13
right_child=7 2 3 -5 5 -7 -8 11 10 -11 -12 14 -14 -15 -16
leaf_value=-0.0010648352644567912 0.00053727340634136876 -0.0012919488395944589 9.6109880582952311e-05 -0.00095034416140336387 0.00055391727918602566 0.0021494871570116314 0.0032796479510233179 0.00037750571769827232 0.002849569239974072 0.0034492608937683636 -0.00043445304679442522 0.00090359384077622366 0.00073507808813695499 2.522867066908364e-05 -0.00075543689926965577
leaf_weight=698 1927 26456 25174 26903 6064 604 71 23572 429 26 52 80 2611 1456 517
leaf_count=698 1927 26456 25174 26903 6064 604 71 23572 429 26 52 80 2611 1456 517
internal_value=0 -0.00491067 -0.00763677 -0.00412735 0.0193788 0.0271506 -0.0145263 0.0109578 0.0269186 0.021065 0.0506861 0.00950709 0.00994309 -0.00467967 -0.00961475
internal_weight=0 87426 78604 52077 8822 6668 26527 29214 2434 1953 481 26780 26183 2154 597
internal_count=116640 87426 78604 52077 8822 6668 26527 29214 2434 1953 481 26780 26183 2154 597
is_linear=0
shrinkage=0.2


Tree=64
num_leaves=16
num_cat=0
split_feature=0 2 2 0 0 2 2 0 2 2 0 0 0 2 0
split_gain=99.2862 99.4797 44.3595 37.8063 23.684 16.9206 13.9747 11.1414 18.9583 10.6237 9.14167 4.72516 3.75 3.45855 2.15487
threshold=0.11382275258119035 -0.93717450228706467 -0.13332519154027975 -0.33858727889411061 -0.45622413206747858 -0.95014720984650847 -1.0330915567919308 0.46128188269450143 0.48409390804111002 3.5702482656195973 -0.048235113643503129 1.4060510440244365 0.21601677966851648 3.2003921943926072 -0.54731178063843011
decision_type=2 2 2 2 2 2 2 2 2 2 2 2 2 2 2
left_child=1 4 3 -3 14 6 11 8 -7 -4 -6 -2 -8 -9 -1
right_child=5 2 9 -5 10 7 12 13 -10 -11 -12 -13 -14 -15 -16
leaf_value=-0.00065557462463556129 0.00072853885314205227 -0.0012583847011340213 -0.0018380598579172812 -2.5956543409160694e-05 0.00059720567119802052 0.00029546361539366191 -0.0058808312753796726 0.00037946531380708925 -0.00055839970705705332 0.00068553422551543371 -1.0081765754433012e-05 -0.0007830230583263754 0.0013169262389079635 -0.00048373489882647791 4.2993121747145304e-05
leaf_weight=552 20 9610 24206 29986 3487 12212 14.999999999999998 27055 7384 598 397 92 127 542 357
leaf_count=552 20 9610 24206 29986 3487 12212 15 27055 7384 598 397 92 127 542 357
internal_value=0 -0.00619514 -0.00826398 -0.00410951 0.0216023 0.00568339 0.0571653 0.00540631 0.00175954 -0.014896 0.0284037 0.00142857 0.08 0.00799579 -0.00745875
